92 30
Module 0.686501 0.896629 0.930753 0.0394124 0.265097 0.584984 0.900567 0.938498 0.931523 0.033531 0.66048 0.111278 0.844527 0.623924 0.97671 0.580204 0.991809 0.566676 0.510207 0.822223 0.0347847 0.77532 0.947217 0.283622 0.995082 0.217326 0.0687695 0.0973511 0.189112 0.615902
Interactive 0.971475 0.401636 0.529194 0.398763 0.145476 0.327539 0.945616 0.62106 0.00146592 0.533907 0.507066 0.50428 0.835162 0.622704 0.319751 0.919388 0.223239 0.0456636 0.220243 0.152418 0.833482 0.439394 0.0365982 0.549489 0.251266 0.530473 0.0784343 0.676272 0.803679 0.449006
Expression 0.235222 0.436942 0.989342 0.142847 0.331639 0.75832 0.357338 0.519167 0.910146 0.327181 0.986763 0.660411 0.635286 0.712234 0.521425 0.524554 0.405935 0.0991874 0.64173 0.502018 0.0281848 0.225979 0.0757415 0.406724 0.92733 0.313117 0.259973 0.914581 0.768138 0.158328
FunctionDef 0.715813 0.321876 0.54336 0.562048 0.860532 0.960537 0.0598152 0.196905 0.159509 0.831879 0.0407993 0.37481 0.112966 0.696336 0.483454 0.462311 0.925367 0.155914 0.785883 0.100738 0.0076621 0.0490961 0.690692 0.48318 0.293254 0.442378 0.433243 0.341677 0.0597633 0.550428
ClassDef 0.562905 0.615784 0.96069 0.913871 0.718905 0.665286 0.95317 0.507205 0.108565 0.82268 0.945133 0.05392 0.916795 0.952837 0.270296 0.890631 0.480721 0.595169 0.6577 0.273272 0.679817 0.418056 0.88003 0.707073 0.869059 0.913488 0.116022 0.560939 0.245111 0.628441
Return 0.304348 0.630581 0.813739 0.231443 0.665396 0.793799 0.98058 0.214214 0.761551 0.221708 0.229565 0.203996 0.917054 0.162983 0.455592 0.00225705 0.274009 0.18794 0.292318 0.315788 0.18913 0.997361 0.018991 0.033504 0.04219 0.00313681 0.822413 0.991586 0.429084 0.453562
Delete 0.636643 0.413474 0.262875 0.111997 0.746478 0.568415 0.696363 0.462842 0.98968 0.0695608 0.555486 0.125724 0.671191 0.210178 0.846431 0.171956 0.591278 0.239956 0.329501 0.0051235 0.739177 0.186435 0.212423 0.917933 0.0522411 0.213501 0.597141 0.193985 0.404606 0.921908
Assign 0.760535 0.0948799 0.0134083 0.268639 0.120906 0.43517 0.464696 0.440261 0.988969 0.391841 0.948994 0.476097 0.750794 0.764544 0.269765 0.996741 0.702797 0.52399 0.762339 0.961135 0.262869 0.372073 0.428863 0.585733 0.678818 0.938996 0.381687 0.0387052 0.164156 0.731685
AugAssign 0.541923 0.710345 0.187504 0.92009 0.312355 0.282623 0.915359 0.669513 0.492624 0.727436 0.744029 0.897254 0.579325 0.276468 0.721067 0.838797 0.66952 0.641863 0.632442 0.0762699 0.892139 0.053939 0.0382649 0.67239 0.0777076 0.127871 0.389309 0.161116 0.515091 0.303805
Print 0.184751 0.171668 0.777369 0.219458 0.355068 0.227819 0.584701 0.294172 0.171721 0.510571 0.922954 0.0396465 0.939233 0.78285 0.10614 0.887508 0.541369 0.604217 0.699778 0.23854 0.91503 0.619587 0.625909 0.843469 0.554886 0.368756 0.461422 0.101167 0.754275 0.502694
For 0.961645 0.970023 0.734623 0.664698 0.586785 0.155883 0.941909 0.629757 0.462547 0.136293 0.0836582 0.886362 0.126876 0.330246 0.834171 0.670207 0.56661 0.2764 0.599416 0.174949 0.103652 0.992459 0.0470719 0.893512 0.911283 0.316735 0.291122 0.263572 0.0232596 0.339837
While 0.395025 0.251365 0.61606 0.890987 0.830321 0.0195843 0.0175366 0.453939 0.43204 0.516315 0.547738 0.863509 0.383577 0.47535 0.842605 0.845452 0.820503 0.852259 0.685625 0.819911 0.00382181 0.950888 0.24211 0.643656 0.922384 0.247864 0.935922 0.4397 0.817105 0.515787
If 0.203064 0.691805 0.163732 0.333426 0.656149 0.396277 0.795927 0.86995 0.252682 0.106841 0.716548 0.518022 0.564133 0.33195 0.698011 0.825878 0.124399 0.361813 0.958449 0.0941937 0.156676 0.432362 0.35222 0.179536 0.107468 0.0546487 0.438406 0.394226 0.0168048 0.268061
With 0.88432 0.564621 0.364788 0.596459 0.165446 0.922212 0.101762 0.66099 0.322254 0.607044 0.136821 0.186777 0.449346 0.623725 0.232099 0.455305 0.848497 0.423491 0.136953 0.257193 0.494653 0.610344 0.60059 0.54745 0.675005 0.527376 0.246486 0.98711 0.474496 0.330744
Raise 0.88376 0.428292 0.227358 0.507583 0.296053 0.519019 0.537332 0.0623311 0.334701 0.277757 0.412673 0.921129 0.403863 0.764196 0.916779 0.975121 0.0803354 0.374038 0.538952 0.962444 0.565681 0.375628 0.441481 0.00124609 0.474879 0.781954 0.409536 0.338884 0.0560718 0.160233
TryExcept 0.634263 0.662421 0.752008 0.535545 0.066602 0.0273094 0.758557 0.364855 0.68977 0.632779 0.735254 0.607143 0.613238 0.254672 0.816103 0.78926 0.360297 0.71689 0.0379826 0.250357 0.551394 0.273379 0.512695 0.909387 0.547411 0.112821 0.328814 0.104392 0.311888 0.990656
TryFinally 0.857773 0.661789 0.567299 0.242944 0.714025 0.517897 0.414555 0.041677 0.0580006 0.462572 0.854459 0.363696 0.511143 0.696972 0.295038 0.138909 0.451112 0.187882 0.0514748 0.643455 0.525819 0.980727 0.279553 0.177251 0.668337 0.60597 0.331329 0.808266 0.632091 0.866024
Assert 0.719763 0.0903392 0.203662 0.667138 0.750213 0.87426 0.020329 0.858341 0.0220457 0.51918 0.0913423 0.14155 0.904414 0.770185 0.123367 0.800328 0.824855 0.619262 0.23851 0.669515 0.830793 0.142396 0.537668 0.995725 0.312776 0.710503 0.0948787 0.534731 0.905962 0.260034
Import 0.471658 0.165733 0.892441 0.542327 0.131375 0.117774 0.868968 0.0527848 0.481549 0.285647 0.937387 0.0654799 0.300255 0.54993 0.318988 0.340375 0.711744 0.135211 0.765152 0.632453 0.60733 0.149536 0.320506 0.631959 0.890917 0.591083 0.0570194 0.458346 0.0308325 0.493449
ImportFrom 0.0805601 0.495648 0.721324 0.533377 0.559481 0.6299 0.961072 0.298544 0.753498 0.588062 0.260884 0.91482 0.521374 0.23895 0.181082 0.277032 0.926255 0.148257 0.260735 0.644514 0.79546 0.978124 0.741524 0.264295 0.885131 0.0638376 0.418661 0.0748216 0.21439 0.850028
Exec 0.875535 0.84705 0.86778 0.441751 0.284462 0.605012 0.452832 0.427419 0.373484 0.589819 0.0286644 0.152212 0.605174 0.820853 0.702523 0.2436 0.119127 0.531837 0.478681 0.4537 0.0384852 0.905526 0.919433 0.0420538 0.445942 0.869137 0.531227 0.934941 0.58638 0.79587
Global 0.307424 0.00614643 0.033833 0.837266 0.366248 0.978347 0.0846262 0.902149 0.803074 0.126927 0.242367 0.436825 0.382189 0.510565 0.336653 0.61829 0.113954 0.145857 0.416183 0.5632 0.858194 0.577785 0.330019 0.158052 0.105329 0.0459702 0.199885 0.219966 0.0827905 0.201353
Expr 0.344512 0.288706 0.75839 0.532316 0.794597 0.121906 0.589046 0.0779452 0.561054 0.847152 0.339607 0.349791 0.642377 0.957168 0.524199 0.263495 0.230096 0.289914 0.711733 0.734963 0.335297 0.595058 0.234158 0.108832 0.00163186 0.740478 0.12206 0.397443 0.636034 0.108465
Pass 0.312027 0.218183 0.464652 0.184645 0.273263 0.239648 0.0879339 0.287625 0.910505 0.708841 0.563034 0.43235 0.739813 0.607563 0.9948 0.877221 0.564988 0.78 0.388847 0.660751 0.138235 0.401751 0.35085 0.915061 0.790174 0.407405 0.500304 0.713459 0.414355 0.480597
Break 0.923654 0.806294 0.258017 0.381667 0.619567 0.995111 0.300665 0.8763 0.982895 0.933681 0.962886 0.476124 0.885359 0.332228 0.707683 0.0582808 0.0717214 0.688214 0.0674555 0.362199 0.066458 0.418729 0.387568 0.673804 0.603178 0.917251 0.379692 0.616061 0.55558 0.00362504
Continue 0.0903001 0.37581 0.766769 0.751837 0.907321 0.55192 0.976231 0.826283 0.228903 0.932801 0.666188 0.57591 0.235741 0.449974 0.414754 0.206089 0.872346 0.632156 0.149247 0.3009 0.599788 0.338669 0.204094 0.47787 0.13315 0.699363 0.375823 0.649367 0.690468 0.494061
attributes 0.779455 0.413763 0.377985 0.903372 0.912555 0.725423 0.00375068 0.410645 0.169676 0.625315 0.800201 0.221246 0.426641 0.209377 0.758966 0.472253 0.643723 0.86618 0.248443 0.260057 0.314848 0.370829 0.139197 0.0173177 0.457159 0.200083 0.996029 0.109586 0.687204 0.521921
BoolOp 0.575232 0.657744 0.368739 0.536879 0.632487 0.613743 0.25751 0.74242 0.0767943 0.219522 0.883314 0.0673757 0.310031 0.657084 0.426048 0.276921 0.273608 0.972653 0.865386 0.854176 0.443554 0.977059 0.163715 0.117267 0.931806 0.216393 0.136078 0.289137 0.77845 0.169751
BinOp 0.31333 0.855509 0.320689 0.55705 0.725697 0.175731 0.954636 0.0986018 0.453288 0.687322 0.332744 0.921078 0.579417 0.253923 0.240243 0.838386 0.704471 0.828485 0.893576 0.786064 0.778213 0.130123 0.358011 0.548869 0.165588 0.335586 0.374792 0.540175 0.185841 0.307747
UnaryOp 0.524652 0.711362 0.938699 0.250382 0.560838 0.587188 0.472674 0.68761 0.875513 0.00729609 0.0266771 0.159212 0.715536 0.166951 0.53275 0.738517 0.499944 0.449761 0.835909 0.696333 0.00187755 0.966489 0.524468 0.251097 0.172646 0.809307 0.208498 0.833612 0.0221723 0.291166
Lambda 0.0422919 0.910404 0.0328063 0.898205 0.206489 0.358913 0.0549134 0.742894 0.86524 0.384115 0.203412 0.625579 0.544341 0.649346 0.560663 0.515632 0.515849 0.573781 0.809186 0.267689 0.632494 0.475354 0.727476 0.6134 0.468396 0.611673 0.663782 0.620089 0.614575 0.54952
IfExp 0.741683 0.072138 0.0315999 0.825746 0.14872 0.645515 0.252212 0.808891 0.662952 0.454383 0.979605 0.568043 0.135479 0.0353941 0.451316 0.317282 0.490426 0.477684 0.225408 0.931627 0.416349 0.35971 0.469357 0.936558 0.376022 0.013008 0.752391 0.496206 0.448135 0.652729
Dict 0.87454 0.758377 0.990491 0.886459 0.915929 0.203272 0.445434 0.020187 0.914004 0.185374 0.939766 0.302672 0.905925 0.925907 0.77632 0.765607 0.511873 0.0878178 0.664057 0.0395192 0.00809586 0.5972 0.0475456 0.884165 0.198564 0.300703 0.273543 0.370079 0.309035 0.608494
Set 0.783855 0.612706 0.862394 0.809936 0.145632 0.768755 0.867701 0.969442 0.791903 0.409678 0.289792 0.777529 0.898645 0.40531 0.774055 0.531789 0.373435 0.861271 0.174656 0.618409 0.255934 0.212411 0.813329 0.582175 0.0180098 0.329277 0.463562 0.176666 0.714087 0.129942
ListComp 0.562338 0.120989 0.538041 0.122187 0.0368595 0.00293171 0.895378 0.882899 0.2329 0.398901 0.931109 0.04249 0.773358 0.454232 0.382354 0.473005 0.44905 0.0775374 0.795272 0.268106 0.800165 0.717438 0.653905 0.680726 0.0918534 0.682238 0.97152 0.913063 0.556293 0.722531
SetComp 0.131116 0.00428128 0.960559 0.0856136 0.120652 0.181193 0.454929 0.73395 0.16011 0.000882387 0.654203 0.670879 0.734571 0.753318 0.514426 0.301431 0.54006 0.783374 0.799927 0.691422 0.608754 0.428407 0.322572 0.127433 0.682485 0.0459707 0.31636 0.934507 0.887725 0.533375
DictComp 0.619181 0.373363 0.987241 0.687624 0.271049 0.671906 0.802436 0.513658 0.861884 0.39532 0.0965133 0.494956 0.528581 0.691326 0.386857 0.29594 0.611674 0.857323 0.477999 0.906056 0.0944095 0.433814 0.926069 0.999085 0.0709105 0.382678 0.759788 0.531175 0.074406 0.666239
GeneratorExp 0.155608 0.181823 0.145984 0.810239 0.589331 0.636139 0.246338 0.854429 0.142837 0.756505 0.345278 0.765369 0.0153946 0.899759 0.795598 0.378836 0.254713 0.345994 0.436601 0.601431 0.879819 0.0187167 0.433893 0.835763 0.768499 0.485903 0.99592 0.466495 0.203296 0.124713
Yield 0.0540622 0.406153 0.323074 0.595075 0.499755 0.57786 0.97567 0.534971 0.127037 0.0527103 0.861137 0.0636404 0.422043 0.42607 0.730575 0.38208 0.871642 0.937661 0.613405 0.650874 0.041803 0.577399 0.585774 0.477789 0.855782 0.721873 0.450564 0.767154 0.542177 0.227954
Compare 0.0484134 0.00830605 0.63278 0.721973 0.85879 0.229784 0.89115 0.34757 0.682292 0.262096 0.0211707 0.488672 0.783282 0.511929 0.15833 0.0302003 0.346157 0.777603 0.907533 0.0955462 0.500674 0.706694 0.137927 0.664641 0.963752 0.23166 0.105228 0.824435 0.695747 0.943391
Call 0.856447 0.320186 0.860794 0.617082 0.905854 0.0463358 0.733642 0.296059 0.813935 0.651658 0.225451 0.360542 0.248853 0.541718 0.0125576 0.563422 0.220362 0.34142 0.235244 0.430698 0.881139 0.324731 0.894818 0.148584 0.395361 0.504237 0.78242 0.273385 0.583561 0.0852617
Repr 0.840268 0.95916 0.428938 0.0808984 0.353099 0.365713 0.907698 0.368334 0.37534 0.00696921 0.142691 0.187851 0.529591 0.883063 0.37761 0.60785 0.477015 0.404741 0.756829 0.754976 0.569854 0.0258136 0.282913 0.397052 0.944016 0.83504 0.370685 0.984196 0.989161 0.761299
Num 0.214596 0.157033 0.465719 0.925648 0.243463 0.316027 0.983701 0.196301 0.706991 0.224721 0.372061 0.857589 0.714845 0.0273513 0.843906 0.213915 0.487755 0.522097 0.566128 0.872465 0.787476 0.612298 0.202953 0.927121 0.740086 0.377713 0.808873 0.277069 0.935555 0.417137
Str 0.248305 0.302235 0.910921 0.821861 0.267475 0.422938 0.883566 0.750554 0.669954 0.981389 0.498118 0.420444 0.855193 0.302545 0.966828 0.019578 0.35891 0.861148 0.817389 0.263038 0.242373 0.00889254 0.42098 0.438386 0.139841 0.244772 0.738484 0.921319 0.331544 0.232687
Attribute 0.0290314 0.740082 0.519855 0.517375 0.272515 0.729522 0.617521 0.397773 0.786659 0.919497 0.866277 0.144367 0.731803 0.338313 0.00229549 0.15778 0.155574 0.918965 0.60403 0.153367 0.567754 0.727673 0.0224069 0.806386 0.439473 0.797861 0.913124 0.626911 0.044149 0.899986
Subscript 0.828082 0.399859 0.654334 0.841262 0.535456 0.0450078 0.0454401 0.293685 0.0530237 0.285826 0.166963 0.58995 0.470952 0.117634 0.540506 0.841395 0.894882 0.598614 0.195047 0.345105 0.787529 0.724267 0.349087 0.69886 0.670568 0.480203 0.511893 0.0973511 0.604432 0.805451
Name 0.594796 0.495558 0.572102 0.425664 0.430725 0.0012189 0.853825 0.653583 0.728754 0.290624 0.359235 0.276541 0.616143 0.288135 0.613381 0.247686 0.217974 0.706516 0.502135 0.383745 0.692761 0.157069 0.866325 0.855273 0.495079 0.835408 0.902764 0.713703 0.360037 0.75409
List 0.22004 0.424858 0.442786 0.829628 0.854585 0.409003 0.916239 0.742958 0.552718 0.162076 0.396927 0.0752731 0.823932 0.563882 0.0978686 0.273205 0.135983 0.387336 0.458443 0.39361 0.881619 0.99754 0.220015 0.945385 0.507782 0.991316 0.0684779 0.420179 0.775213 0.0449966
Tuple 0.705951 0.866636 0.604188 0.610025 0.167896 0.599261 0.779785 0.616739 0.825545 0.553254 0.500714 0.269382 0.845012 0.687512 0.103346 0.124101 0.147746 0.441062 0.0342972 0.01316 0.832916 0.42638 0.531833 0.0449643 0.251609 0.278167 0.592575 0.856787 0.822344 0.965543
Load 0.568414 0.20982 0.252566 0.859592 0.663011 0.101151 0.590918 0.00531342 0.495734 0.18913 0.699223 0.682965 0.991515 0.837673 0.724742 0.842264 0.445426 0.187795 0.0388715 0.257373 0.939674 0.885864 0.235421 0.575321 0.623784 0.42934 0.288619 0.723258 0.436227 0.99656
Store 0.1978 0.706477 0.875114 0.950007 0.844653 0.864545 0.740423 0.0901157 0.186161 0.79041 0.196778 0.601251 0.21516 0.437591 0.66458 0.354102 0.432948 0.884768 0.71135 0.893822 0.599364 0.51517 0.0248678 0.0911454 0.699414 0.624363 0.100741 0.145554 0.756465 0.960965
Del 0.00909543 0.452995 0.519538 0.178554 0.211978 0.844639 0.0726708 0.322174 0.383864 0.736664 0.125929 0.561798 0.144382 0.306587 0.384789 0.0118783 0.745166 0.0688465 0.859882 0.595092 0.488361 0.169912 0.250045 0.0194329 0.753636 0.786558 0.544207 0.232284 0.396874 0.306269
AugLoad 0.50095 0.396446 0.953234 0.588888 0.334836 0.381583 0.733691 0.487808 0.776262 0.986024 0.0629473 0.395967 0.363775 0.467852 0.187926 0.986933 0.699851 0.106047 0.716016 0.371141 0.689239 0.255607 0.182328 0.733225 0.452563 0.422524 0.491758 0.721592 0.348788 0.781127
AugStore 0.884055 0.423729 0.463162 0.39224 0.320365 0.346176 0.436162 0.458055 0.0665318 0.684925 0.00556552 0.936259 0.507586 0.523647 0.106679 0.194159 0.749311 0.731604 0.233219 0.440455 0.099714 0.723658 0.780073 0.736996 0.378817 0.722688 0.654092 0.141533 0.95995 0.660568
Param 0.875919 0.327007 0.300267 0.506891 0.737221 0.954997 0.891942 0.780717 0.932482 0.356331 0.80766 0.366314 0.929009 0.190691 0.576728 0.903101 0.598852 0.587315 0.426504 0.89885 0.237363 0.625579 0.545516 0.0451232 0.0274815 0.704209 0.0973556 0.828299 0.488816 0.726377
Ellipsis 0.818356 0.269997 0.2457 0.907171 0.809291 0.897455 0.43757 0.133004 0.264737 0.857227 0.68845 0.965439 0.783007 0.527404 0.574078 0.22589 0.383193 0.286566 0.600647 0.83779 0.641795 0.730404 0.510302 0.901803 0.216878 0.355196 0.840222 0.493224 0.427431 0.519357
Slice 0.486281 0.173754 0.817934 0.102424 0.18897 0.478404 0.059656 0.123396 0.36675 0.00907834 0.740324 0.293245 0.593318 0.42258 0.175603 0.329438 0.394852 0.91698 0.196675 0.109203 0.274964 0.603102 0.995096 0.664616 0.915162 0.81802 0.24914 0.61114 0.99221 0.794745
ExtSlice 0.714666 0.322097 0.0513678 0.76523 0.235597 0.158518 0.239171 0.783227 0.466499 0.076105 0.633171 0.556905 0.40827 0.608213 0.738936 0.778776 0.264073 0.324354 0.452395 0.729313 0.0734371 0.0316372 0.588777 0.551086 0.547307 0.225592 0.443498 0.54861 0.852257 0.971834
Index 0.248164 0.370608 0.370522 0.966596 0.786767 0.99543 0.249553 0.0290944 0.526644 0.148542 0.877274 0.680764 0.183969 0.902182 0.772848 0.839151 0.989254 0.365219 0.116526 0.808422 0.321922 0.665621 0.272721 0.161968 0.564977 0.169833 0.213193 0.026469 0.245091 0.577583
And 0.104541 0.0607303 0.969345 0.0338848 0.896774 0.398827 0.69733 0.995269 0.258709 0.0671728 0.643981 0.65577 0.11288 0.823539 0.339484 0.47713 0.820827 0.0755218 0.465021 0.118458 0.163292 0.037402 0.692464 0.872829 0.637001 0.841647 0.585241 0.0820043 0.766931 0.152567
Or 0.407208 0.149993 0.629026 0.966804 0.92713 0.105039 0.72045 0.722732 0.831507 0.0405906 0.112381 0.661887 0.163251 0.0222154 0.33532 0.137177 0.124936 0.852586 0.209772 0.985698 0.77418 0.564023 0.621295 0.676661 0.0602031 0.000167131 0.815806 0.308312 0.853292 0.85426
Add 0.21897 0.786968 0.502828 0.478833 0.505895 0.621771 0.154131 0.0950641 0.31752 0.964151 0.838175 0.998842 0.737562 0.526243 0.973171 0.136231 0.258614 0.0790139 0.157268 0.746124 0.752672 0.593543 0.187608 0.58636 0.464103 0.956477 0.798812 0.401779 0.071201 0.439126
Sub 0.540626 0.26571 0.356888 0.22933 0.580755 0.945979 0.156796 0.0778 0.377441 0.615961 0.368002 0.849214 0.869129 0.473712 0.776988 0.993835 0.874196 0.0489348 0.463396 0.20895 0.0565737 0.662978 0.270308 0.729099 0.880343 0.0899396 0.978488 0.63307 0.897523 0.640652
Mult 0.65355 0.343961 0.217982 0.464767 0.51057 0.782074 0.169142 0.60985 0.97699 0.769613 0.887092 0.17918 0.217076 0.0678976 0.839779 0.29753 0.645329 0.330409 0.324349 0.0152693 0.230683 0.849496 0.963568 0.832162 0.991497 0.341801 0.550517 0.820321 0.646244 0.781093
Div 0.982833 0.327996 0.860624 0.790378 0.560974 0.696842 0.665102 0.284354 0.626643 0.186864 0.815472 0.227226 0.880919 0.945795 0.137086 0.315661 0.351819 0.312027 0.318491 0.229163 0.572305 0.495813 0.956082 0.84449 0.624765 0.335426 0.706315 0.272639 0.871912 0.226512
Mod 0.309574 0.431505 0.479502 0.116313 0.515339 0.672507 0.764699 0.879057 0.955375 0.100936 0.296086 0.807863 0.17517 0.543216 0.416782 0.307524 0.868463 0.750914 0.663043 0.719375 0.227835 0.25756 0.366625 0.00231326 0.735649 0.10566 0.546304 0.368852 0.929773 0.651573
Pow 0.568079 0.118406 0.0975668 0.977354 0.805185 0.0981312 0.629403 0.672911 0.559234 0.740817 0.622707 0.146425 0.999912 0.584171 0.000318885 0.977634 0.794256 0.00102329 0.0332546 0.0611101 0.572794 0.767331 0.985122 0.696257 0.62876 0.442131 0.440502 0.733723 0.134782 0.982488
LShift 0.573421 0.429738 0.648475 0.507812 0.998814 0.479972 0.286417 0.255741 0.442449 0.123376 0.25833 0.0422704 0.896996 0.901618 0.251744 0.406885 0.982232 0.236776 0.483246 0.698027 0.405878 0.138704 0.805678 0.808978 0.187636 0.122414 0.0868821 0.931519 0.377275 0.615737
RShift 0.330771 0.961428 0.58281 0.479274 0.174918 0.0164517 0.409913 0.92528 0.142085 0.392417 0.873164 0.168608 0.665928 0.471918 0.405203 0.150586 0.359638 0.183257 0.00761259 0.09867 0.210507 0.711429 0.514094 0.25177 0.926713 0.335963 0.973341 0.181785 0.995627 0.637166
BitOr 0.108818 0.428317 0.545025 0.0418454 0.719729 0.711584 0.3936 0.405839 0.540201 0.726126 0.123267 0.626763 0.874575 0.479935 0.678819 0.883242 0.476036 0.608204 0.193865 0.0452001 0.860248 0.36616 0.362794 0.0913931 0.919463 0.849993 0.421651 0.947802 0.673142 0.211266
BitXor 0.932646 0.164252 0.307224 0.329967 0.20647 0.191374 0.542484 0.254754 0.712746 0.203192 0.00129139 0.530087 0.693283 0.104373 0.965756 0.803414 0.47032 0.953046 0.40973 0.867806 0.838955 0.991039 0.683082 0.364561 0.0461851 0.475766 0.642988 0.714515 0.848717 0.629902
BitAnd 0.914239 0.292636 0.69512 0.000780821 0.161565 0.042274 0.235437 0.860772 0.228678 0.194864 0.171944 0.303412 0.698602 0.739059 0.356495 0.355635 0.239883 0.454897 0.809826 0.484406 0.238259 0.860978 0.945446 0.165169 0.878451 0.570484 0.231265 0.153515 0.364473 0.718128
FloorDiv 0.0419137 0.0101139 0.732047 0.0678707 0.50133 0.0546823 0.723178 0.302602 0.0916202 0.489464 0.315443 0.636685 0.470879 0.128827 0.344149 0.228699 0.0755328 0.00588981 0.521333 0.00318248 0.266387 0.00573947 0.0157794 0.696091 0.347156 0.695644 0.313481 0.44141 0.374918 0.884869
Invert 0.158165 0.493419 0.738129 0.00231302 0.856268 0.806488 0.593821 0.0361924 0.122845 0.24962 0.775518 0.990386 0.537971 0.525117 0.687525 0.220852 0.618385 0.276438 0.104776 0.585257 0.0778023 0.333739 0.627306 0.000699997 0.0673114 0.582272 0.640902 0.6114 0.900545 0.881727
Not 0.229836 0.218534 0.0304617 0.735535 0.101771 0.760514 0.943124 0.532851 0.594544 0.675283 0.114895 0.309422 0.6177 0.0431038 0.137146 0.932982 0.519371 0.110728 0.432733 0.388095 0.995802 0.0333092 0.637138 0.664678 0.0481955 0.798429 0.583073 0.742202 0.17999 0.289085
UAdd 0.0401404 0.863148 0.130191 0.384335 0.336028 0.985019 0.886715 0.640628 0.991169 0.736457 0.248633 0.134726 0.166462 0.815649 0.864206 0.437314 0.0794812 0.134666 0.019277 0.563289 0.329471 0.80155 0.524163 0.367387 0.675322 0.40607 0.956305 0.479825 0.576389 0.543613
USub 0.2016 0.104563 0.846068 0.778411 0.0495404 0.368904 0.617023 0.907439 0.501233 0.911321 0.210042 0.773671 0.570136 0.475407 0.973786 0.00664115 0.654053 0.193631 0.424948 0.734555 0.579687 0.183035 0.922205 0.954713 0.162604 0.447085 0.249094 0.226423 0.298866 0.938776
Eq 0.395416 0.480818 0.295741 0.272474 0.291196 0.759433 0.0248896 0.742064 0.255116 0.215421 0.1368 0.358894 0.331325 0.871338 0.451355 0.550014 0.700461 0.0705534 0.626561 0.145149 0.447659 0.273025 0.197893 0.146533 0.0488681 0.904579 0.481075 0.482497 0.582591 0.727837
NotEq 0.419087 0.20185 0.91013 0.232507 0.818207 0.291102 0.91657 0.391269 0.0136995 0.355776 0.39207 0.408882 0.430853 0.917891 0.423905 0.0518161 0.221851 0.0248716 0.610059 0.165393 0.643469 0.420872 0.399649 0.331739 0.529309 0.854367 0.875484 0.847527 0.100417 0.921263
Lt 0.844779 0.0978589 0.960653 0.731867 0.948477 0.297213 0.1934 0.544497 0.431303 0.482215 0.332343 0.107491 0.0463284 0.293766 0.438114 0.407922 0.505794 0.479786 0.397658 0.839123 0.676804 0.20751 0.816491 0.773628 0.116676 0.642542 0.743055 0.60839 0.606566 0.641796
LtE 0.00925883 0.663782 0.687597 0.814332 0.813129 0.999546 0.534552 0.827305 0.202974 0.84516 0.364727 0.601566 0.0414168 0.875948 0.707339 0.366856 0.840685 0.114868 0.231816 0.986648 0.772935 0.52479 0.591453 0.835164 0.861996 0.810976 0.569816 0.548293 0.539897 0.840715
Gt 0.0236961 0.907127 0.340882 0.743587 0.566416 0.390663 0.779733 0.746729 0.0192924 0.0676013 0.841096 0.918035 0.366759 0.775676 0.295452 0.0915443 0.180519 0.116027 0.675997 0.415367 0.885222 0.765111 0.0477668 0.857603 0.221967 0.0877466 0.920261 0.0555886 0.0777694 0.675474
GtE 0.0122497 0.935665 0.788856 0.582403 0.186928 0.549449 0.686413 0.372022 0.475209 0.844438 0.710058 0.493276 0.852774 0.675959 0.698404 0.360767 0.82918 0.239806 0.739337 0.704382 0.698712 0.0976887 0.611293 0.475932 0.163374 0.650349 0.579326 0.60748 0.894882 0.68505
Is 0.544378 0.500444 0.0332373 0.167954 0.956887 0.198421 0.623023 0.184929 0.348542 0.511208 0.614563 0.426621 0.549784 0.431652 0.863715 0.739645 0.564643 0.319955 0.232787 0.338144 0.335029 0.654987 0.68075 0.738664 0.972783 0.906282 0.951866 0.365679 0.0192997 0.503252
IsNot 0.547317 0.268428 0.329863 0.854806 0.0787313 0.764065 0.528066 0.180558 0.45288 0.0651882 0.194387 0.286093 0.40922 0.0777587 0.743789 0.958075 0.529432 0.808946 0.926258 0.194417 0.506539 0.00727153 0.287876 0.663792 0.0442744 0.125246 0.108201 0.668423 0.636048 0.772137
In 0.327548 0.797332 0.642862 0.0924129 0.708684 0.95232 0.501232 0.32799 0.184019 0.836954 0.0708295 0.124543 0.149646 0.483505 0.412065 0.653757 0.0379407 0.526888 0.0832475 0.887223 0.14997 0.739255 0.911305 0.321823 0.993282 0.533412 0.608314 0.0955583 0.293126 0.365443
NotIn 0.311118 0.531181 0.631136 0.266694 0.660123 0.360093 0.710517 0.435434 0.715451 0.812774 0.762576 0.887808 0.691653 0.131117 0.150794 0.797174 0.645029 0.901671 0.180668 0.274396 0.547342 0.568383 0.582078 0.292809 0.821595 0.577965 0.581694 0.2052 0.268399 0.220148
comprehension 0.209193 0.27998 0.913071 0.222546 0.48924 0.194377 0.0942732 0.658122 0.27267 0.639898 0.29238 0.266892 0.316483 0.671495 0.680466 0.981857 0.931915 0.305754 0.389342 0.634981 0.566262 0.966852 0.707127 0.284903 0.535201 0.902367 0.593292 0.317335 0.897095 0.17742
ExceptHandler 0.81518 0.594123 0.866086 0.151198 0.887051 0.171396 0.259904 0.484891 0.162333 0.560611 0.234291 0.11387 0.752169 0.349949 0.609088 0.125226 0.723938 0.211713 0.0186423 0.395679 0.110083 0.6144 0.113016 0.656759 0.607994 0.949783 0.750323 0.606653 0.608648 0.713332
arguments 0.0430896 0.869632 0.145244 0.368077 0.450135 0.5462 0.804016 0.847648 0.160754 0.797083 0.419415 0.00639303 0.515392 0.474977 0.112463 0.0207578 0.741257 0.663349 0.805399 0.351782 0.563345 0.713247 0.388062 0.376921 0.34249 0.400467 0.649228 0.994562 0.687778 0.0751512
keyword 0.837906 0.261609 0.252466 0.183974 0.235356 0.0622288 0.815587 0.804452 0.470106 0.493174 0.683981 0.235571 0.559172 0.685434 0.165099 0.419971 0.0509081 0.393066 0.158742 0.414165 0.486 0.0618459 0.0682874 0.101005 0.794697 0.77669 0.809665 0.834942 0.178756 0.40206
alias 0.0514091 0.56758 0.535625 0.33341 0.980608 0.479952 0.726465 0.881888 0.156813 0.846985 0.627395 0.674609 0.667663 0.68582 0.768242 0.659586 0.275143 0.800364 0.660343 0.0954151 0.423731 0.995352 0.402252 0.110352 0.718642 0.223884 0.8422 0.40114 0.599805 0.704599
