92 30
Module 0.872581 0.370596 0.609309 0.862781 0.26041 0.55729 0.322377 0.361708 0.698662 0.887491 0.0600314 0.00852799 0.428799 0.225577 0.891113 0.0347059 0.700625 0.559493 0.290247 0.275011 0.149356 0.578096 0.393953 0.986574 0.512196 0.672005 0.895065 0.147131 0.499795 0.341369
Interactive 0.79959 0.66123 0.689586 0.547058 0.85071 0.315048 0.980039 0.0786096 0.421605 0.0928837 0.855044 0.773891 0.808881 0.168588 0.675782 0.52533 0.130838 0.7758 0.213697 0.495519 0.610611 0.712186 0.717406 0.326925 0.829639 0.2162 0.963754 0.206674 0.267568 0.0719565
Expression 0.135131 0.218578 0.257417 0.843357 0.25701 0.0269264 0.935938 0.978405 0.540703 0.542424 0.379163 0.690555 0.585903 0.507443 0.865528 0.807401 0.491301 0.0530007 0.85412 0.967849 0.0926917 0.00396705 0.51562 0.0794107 0.303511 0.141564 0.859803 0.454815 0.997125 0.687128
FunctionDef 0.405332 0.201018 0.073256 0.738994 0.0785572 0.570921 0.832269 0.64364 0.43308 0.931397 0.659126 0.0316267 0.487832 0.0414376 0.499009 0.360956 0.834377 0.191639 0.279184 0.346721 0.240564 0.401042 0.962664 0.220068 0.706686 0.694795 0.510356 0.716915 0.929712 0.26666
ClassDef 0.0508519 0.711687 0.0290706 0.260011 0.40986 0.328062 0.472754 0.119619 0.229942 0.279831 0.995985 0.903314 0.758371 0.915575 0.497947 0.793728 0.241086 0.747806 0.941278 0.61375 0.0886281 0.781621 0.944689 0.4364 0.858875 0.0268754 0.96082 0.437798 0.785376 0.320313
Return 0.648504 0.757396 0.796763 0.830786 0.437381 0.0253402 0.883778 0.0480193 0.341063 0.24585 0.80231 0.484281 0.998291 0.436104 0.727684 0.101445 0.593343 0.307965 0.92062 0.522883 0.199508 0.110768 0.626458 0.628368 0.619765 0.870974 0.462132 0.901324 0.0700126 0.692918
Delete 0.637133 0.315749 0.49239 0.388695 0.57494 0.286828 0.616782 0.699538 0.83304 0.893888 0.488248 0.173887 0.571261 0.35409 0.693449 0.333289 0.388861 0.126391 0.374336 0.119531 0.111698 0.978242 0.0257646 0.657028 0.66518 0.0318052 0.239503 0.691457 0.743914 0.390194
Assign 0.511985 0.109646 0.180217 0.310424 0.998532 0.687018 0.200447 0.214664 0.62666 0.0229917 0.942795 0.166022 0.922765 0.118265 0.104694 0.554012 0.914754 0.106633 0.181403 0.862198 0.276253 0.0549514 0.803946 0.229338 0.94562 0.957188 0.210667 0.0215626 0.0205032 0.277655
AugAssign 0.570074 0.837911 0.402308 0.740856 0.991728 0.744882 0.795659 0.382524 0.631245 0.191661 0.986015 0.61599 0.53766 0.184589 0.693783 0.855591 0.480964 0.220565 0.723525 0.607173 0.856175 0.457872 0.893554 0.328325 0.100469 0.819152 0.495866 0.0205212 0.20681 0.742959
Print 0.149296 0.857673 0.425713 0.958168 0.523904 0.719323 0.747649 0.606819 0.230396 0.98134 0.174692 0.645565 0.13529 0.826681 0.825197 0.339624 0.564705 0.550331 0.747591 0.904268 0.248575 0.655906 0.0651561 0.421887 0.52271 0.481767 0.957604 0.240812 0.000514607 0.423209
For 0.583282 0.861831 0.885692 0.351642 0.492719 0.104892 0.0613901 0.792684 0.845791 0.542099 0.471492 0.447395 0.364212 0.781497 0.504982 0.328273 0.459138 0.278855 0.00159878 0.250477 0.373381 0.647822 0.89349 0.183202 0.332693 0.537213 0.0368877 0.375686 0.353414 0.621916
While 0.858109 0.313808 0.358329 0.185772 0.348588 0.368951 0.85662 0.0206686 0.730688 0.911689 0.482114 0.734524 0.632765 0.361129 0.648511 0.404803 0.348344 0.786018 0.679468 0.975747 0.408802 0.568787 0.288713 0.41957 0.198997 0.576078 0.476385 0.336248 0.810588 0.825278
If 0.410291 0.292752 0.199309 0.636924 0.314589 0.883923 0.0713432 0.771178 0.693817 0.0522738 0.451951 0.772773 0.209688 0.6319 0.273485 0.350089 0.779158 0.281585 0.668583 0.327879 0.0143946 0.61956 0.214013 0.596013 0.0728891 0.612719 0.0643663 0.273596 0.955573 0.540806
With 0.390907 0.654382 0.115366 0.152527 0.851448 0.287342 0.222809 0.231386 0.467587 0.908569 0.907551 0.10427 0.153691 0.116443 0.125398 0.698388 0.560781 0.494497 0.175905 0.4506 0.760834 0.845475 0.0434833 0.270386 0.775041 0.469063 0.641629 0.10388 0.847447 0.703659
Raise 0.124214 0.916328 0.352546 0.0333407 0.63844 0.593496 0.760524 0.623372 0.830397 0.557845 0.55251 0.214301 0.377658 0.136747 0.535561 0.875787 0.268276 0.728976 0.358218 0.985446 0.599615 0.516926 0.650296 0.798264 0.548286 0.875898 0.876279 0.385768 0.0490823 0.966899
TryExcept 0.43644 0.320804 0.34297 0.674725 0.29293 0.269155 0.774697 0.468717 0.615224 0.226677 0.339655 0.476757 0.583622 0.884955 0.583479 0.251286 0.444364 0.283443 0.916223 0.287323 0.733171 0.0733258 0.675204 0.400357 0.882976 0.942038 0.679805 0.845462 0.881065 0.364401
TryFinally 0.363971 0.189943 0.90936 0.235046 0.655941 0.0747036 0.2231 0.200845 0.567113 0.676879 0.373848 0.257699 0.36814 0.510275 0.123011 0.671761 0.528737 0.761559 0.679727 0.134098 0.866642 0.798133 0.898329 0.873087 0.341255 0.461338 0.659589 0.109934 0.0475473 0.979766
Assert 0.689017 0.207059 0.225759 0.209529 0.350136 0.294392 0.0128181 0.929407 0.634497 0.0588216 0.637282 0.486143 0.545659 0.333881 0.224746 0.296702 0.292672 0.544719 0.201508 0.435532 0.666086 0.511052 0.511362 0.895146 0.672094 0.760408 0.519468 0.803081 0.894011 0.0683568
Import 0.987425 0.184366 0.133444 0.276323 0.575098 0.121985 0.53816 0.334923 0.838128 0.307532 0.381786 0.923679 0.842286 0.316141 0.297275 0.597572 0.938757 0.200634 0.349379 0.526423 0.560709 0.766611 0.95108 0.847885 0.2487 0.283855 0.341272 0.75653 0.579003 0.892214
ImportFrom 0.487743 0.68742 0.583646 0.746839 0.412897 0.919072 0.129002 0.720185 0.866549 0.333769 0.146568 0.157645 0.121006 0.134906 0.0734216 0.300966 0.474349 0.957464 0.945944 0.527392 0.257755 0.888077 0.377695 0.275523 0.281114 0.40406 0.841808 0.883983 0.116277 0.682276
Exec 0.944648 0.393777 0.358886 0.00250113 0.736464 0.834961 0.466092 0.734199 0.804901 0.0641398 0.943638 0.697545 0.0278739 0.184494 0.654894 0.0412464 0.0564361 0.164876 0.89227 0.449973 0.857524 0.831069 0.54471 0.081818 0.0755116 0.821476 0.0490493 0.385106 0.510954 0.659437
Global 0.489433 0.187993 0.516329 0.562752 0.604366 0.870847 0.262688 0.233723 0.463938 0.348035 0.508829 0.398269 0.41698 0.544755 0.575268 0.709661 0.027113 0.504217 0.328935 0.710984 0.32341 0.13561 0.126241 0.668466 0.0761437 0.108896 0.57345 0.663138 0.682513 0.291924
Expr 0.940832 0.410625 0.980952 0.751051 0.374515 0.758507 0.963515 0.0413686 0.927274 0.62856 0.612179 0.358894 0.769447 0.540163 0.692147 0.78259 0.226933 0.0378579 0.274025 0.28539 0.341308 0.461394 0.534932 0.805074 0.17815 0.829978 0.0600552 0.487937 0.330873 0.593518
Pass 0.546867 0.464736 0.940583 0.589503 0.451066 0.335224 0.127662 0.174857 0.375071 0.740261 0.279388 0.755296 0.58131 0.354365 0.67969 0.00471079 0.108121 0.49512 0.292728 0.45795 0.161505 0.235109 0.678609 0.673762 0.395388 0.417005 0.606295 0.42502 0.455154 0.303671
Break 0.195328 0.221095 0.473069 0.923128 0.650178 0.312701 0.968079 0.204252 0.159029 0.551122 0.600654 0.582968 0.106683 0.828473 0.243337 0.931206 0.090054 0.299756 0.51762 0.508265 0.495116 0.869908 0.693467 0.67354 0.185788 0.894378 0.249462 0.602251 0.104231 0.0125151
Continue 0.647678 0.910547 0.211626 0.365024 0.137466 0.423839 0.132905 0.868194 0.918495 0.815537 0.819516 0.509004 0.258543 0.495193 0.264873 0.817778 0.103358 0.450789 0.29592 0.807852 0.501019 0.367285 0.17711 0.108034 0.462637 0.514703 0.160157 0.762896 0.366314 0.00642955
attributes 0.285316 0.138698 0.153005 0.695866 0.893775 0.311525 0.119886 0.870183 0.0611156 0.960182 0.839196 0.147699 0.663915 0.153812 0.583608 0.844552 0.751323 0.36032 0.311365 0.289817 0.853534 0.422746 0.111009 0.100524 0.604449 0.475936 0.703872 0.2214 0.0454075 0.44178
BoolOp 0.644539 0.894602 0.960996 0.54125 0.308157 0.702271 0.208678 0.931309 0.0938488 0.916195 0.61708 0.0798796 0.766185 0.332692 0.0427108 0.03131 0.401785 0.815821 0.275465 0.628815 0.353585 0.287719 0.653444 0.675101 0.903574 0.165556 0.832152 0.463559 0.00696838 0.426929
BinOp 0.68629 0.713175 0.625436 0.29063 0.496704 0.847121 0.625236 0.0086775 0.509284 0.355173 0.234269 0.482028 0.0976469 0.502243 0.0870976 0.934796 0.635041 0.850551 0.805434 0.269144 0.356553 0.367593 0.930477 0.242492 0.688665 0.836218 0.713154 0.545362 0.86138 0.235467
UnaryOp 0.649983 0.225061 0.093913 0.346507 0.105116 0.558298 0.906298 0.967048 0.794543 0.977913 0.536408 0.664646 0.587723 0.551148 0.940148 0.878733 0.883955 0.594395 0.167503 0.645157 0.573657 0.420678 0.344098 0.27727 0.236025 0.979391 0.969204 0.401142 0.499757 0.300987
Lambda 0.459266 0.947852 0.577379 0.799105 0.050418 0.526822 0.0285821 0.450186 0.0394214 0.089476 0.721503 0.154944 0.799589 0.287277 0.0184424 0.0325481 0.764595 0.618256 0.119268 0.783949 0.554249 0.0518011 0.545368 0.282622 0.520812 0.838523 0.939368 0.101434 0.163113 0.345813
IfExp 0.121737 0.0531124 0.193117 0.727282 0.706804 0.331224 0.88057 0.679947 0.521342 0.436835 0.012342 0.831342 0.895353 0.995582 0.495523 0.64557 0.998161 0.84017 0.805423 0.0641237 0.0297335 0.637432 0.00829017 0.825044 0.436464 0.780606 0.0246646 0.526692 0.988805 0.142991
Dict 0.903175 0.0237341 0.511831 0.317213 0.293306 0.314179 0.470242 0.965075 0.176236 0.652059 0.0659369 0.660128 0.93702 0.613984 0.634026 0.0134275 0.161926 0.643191 0.997899 0.046435 0.658431 0.87873 0.97388 0.931014 0.245861 0.24848 0.075477 0.885182 0.347968 0.677557
Set 0.612215 0.852517 0.0316043 0.944678 0.969102 0.609356 0.357831 0.226336 0.729439 0.948875 0.496853 0.0481951 0.415839 0.268744 0.990871 0.263764 0.596222 0.137492 0.907236 0.199962 0.59273 0.484165 0.275437 0.447876 0.833745 0.045354 0.905465 0.551187 0.527389 0.380388
ListComp 0.675097 0.410766 0.811163 0.866781 0.113425 0.0597175 0.952436 0.30439 0.514039 0.323708 0.0208007 0.976339 0.339682 0.226041 0.649962 0.370227 0.679534 0.165873 0.406642 0.0468813 0.446364 0.711714 0.42015 0.0847499 0.377912 0.171955 0.698865 0.339723 0.200144 0.417689
SetComp 0.316597 0.00850165 0.195904 0.315911 0.0462626 0.265526 0.341002 0.0173551 0.645667 0.469479 0.737023 0.610397 0.568057 0.592578 0.710609 0.887401 0.632159 0.0686885 0.0752027 0.695928 0.201565 0.744692 0.311374 0.709524 0.0866818 0.949589 0.0833716 0.447574 0.777156 0.183355
DictComp 0.105351 0.317764 0.535446 0.497941 0.219788 0.412377 0.537251 0.466803 0.65941 0.656046 0.970215 0.225263 0.271986 0.217574 0.882051 0.893797 0.630485 0.289554 0.0459774 0.622316 0.669007 0.196189 0.610493 0.417519 0.779196 0.337634 0.685414 0.22904 0.159305 0.629705
GeneratorExp 0.508671 0.568434 0.0486832 0.48388 0.267347 0.869894 0.947256 0.829628 0.684355 0.316346 0.419837 0.0589865 0.371902 0.185265 0.912573 0.979917 0.985667 0.792589 0.151277 0.831766 0.148798 0.837229 0.886007 0.070297 0.756725 0.10636 0.160022 0.962347 0.295514 0.448954
Yield 0.670609 0.0584631 0.430225 0.672493 0.596433 0.771139 0.261211 0.453318 0.571889 0.126578 0.601652 0.47505 0.0875827 0.446323 0.56826 0.0993179 0.506043 0.589994 0.544136 0.271806 0.884468 0.417598 0.577156 0.273112 0.136215 0.682499 0.316855 0.985113 0.702097 0.560164
Compare 0.854437 0.87378 0.637763 0.604643 0.827945 0.325745 0.24637 0.197427 0.0542609 0.742816 0.388232 0.35124 0.716812 0.992128 0.895966 0.229395 0.53601 0.349014 0.426467 0.290217 0.732456 0.202104 0.633345 0.360072 0.134069 0.723994 0.195364 0.982256 0.746716 0.221851
Call 0.0970019 0.107642 0.493619 0.598978 0.530212 0.753221 0.297269 0.228122 0.75493 0.624843 0.326366 0.0248759 0.925869 0.637061 0.922007 0.219948 0.72348 0.749211 0.972598 0.244925 0.583582 0.0691474 0.288523 0.675259 0.0385042 0.0120977 0.361863 0.140332 0.713915 0.147609
Repr 0.127418 0.440704 0.699364 0.745842 0.90003 0.79443 0.681469 0.567629 0.158424 0.405689 0.0808778 0.0897932 0.836571 0.854973 0.364725 0.847829 0.475959 0.670287 0.923926 0.853407 0.952387 0.519908 0.10315 0.868415 0.927736 0.666302 0.349858 0.163249 0.960449 0.104465
Num 0.534788 0.27695 0.680377 0.573685 0.248026 0.00548327 0.234295 0.983603 0.190563 0.567831 0.852391 0.509217 0.559366 0.688263 0.472103 0.215418 0.570449 0.830465 0.285617 0.774112 0.666341 0.777118 0.675911 0.318841 0.0962263 0.819399 0.91048 0.319362 0.373657 0.0885394
Str 0.959844 0.787004 0.133887 0.647497 0.161179 0.866549 0.686764 0.604973 0.238438 0.799419 0.646227 0.145357 0.794195 0.558978 0.227412 0.0552653 0.262201 0.452 0.312568 0.607557 0.614382 0.927083 0.683187 0.584205 0.878579 0.742708 0.333911 0.494013 0.028483 0.638934
Attribute 0.877237 0.86085 0.808192 0.525193 0.543676 0.559219 0.421417 0.150176 0.959577 0.730582 0.144481 0.43517 0.168193 0.249984 0.598558 0.50865 0.635808 0.682123 0.564819 0.969565 0.983756 0.59662 0.193368 0.377201 0.467694 0.629668 0.267923 0.984214 0.205944 0.765186
Subscript 0.100346 0.492362 0.194685 0.493868 0.0722045 0.544396 0.735196 0.324526 0.00976738 0.190092 0.287584 0.979765 0.227249 0.260168 0.315016 0.417103 0.238389 0.711933 0.161861 0.124391 0.412645 0.293296 0.520117 0.025708 0.0278121 0.0865244 0.903205 0.562027 0.0922298 0.0680817
Name 0.426236 0.69712 0.274956 0.839955 0.614401 0.66847 0.880189 0.963777 0.937196 0.590428 0.995025 0.966067 0.0177904 0.673383 0.10217 0.58519 0.68934 0.379994 0.984807 0.841278 0.642105 0.666837 0.244063 0.927085 0.980545 0.594063 0.0379434 0.726665 0.145661 0.853596
List 0.449787 0.627063 0.335783 0.659211 0.654227 0.960083 0.521582 0.0647099 0.730881 0.943162 0.00559485 0.616236 0.121312 0.438249 0.876413 0.554631 0.938645 0.301291 0.237517 0.811413 0.398088 0.708082 0.603236 0.541797 0.697365 0.342706 0.270459 0.485906 0.0297277 0.65355
Tuple 0.181293 0.237953 0.232592 0.982951 0.470717 0.990765 0.011283 0.183193 0.548398 0.476022 0.750231 0.896356 0.98642 0.652139 0.476648 0.301528 0.94661 0.461323 0.711216 0.934475 0.47153 0.176096 0.308446 0.66341 0.776418 0.805619 0.351569 0.285457 0.640002 0.156133
Load 0.934136 0.69524 0.954843 0.0263287 0.823774 0.664428 0.576926 0.450478 0.931758 0.134693 0.714909 0.18315 0.656837 0.156938 0.460369 0.982751 0.39489 0.46917 0.645639 0.604519 0.140155 0.712491 0.945867 0.32913 0.884672 0.124519 0.847543 0.714663 0.836519 0.326964
Store 0.0629533 0.878276 0.0315546 0.597188 0.468272 0.380149 0.424011 0.441027 0.634964 0.563326 0.336428 0.867414 0.227624 0.862236 0.774803 0.365478 0.376152 0.936732 0.79433 0.968585 0.203309 0.893924 0.743286 0.930146 0.533962 0.1779 0.267577 0.0320588 0.0303449 0.528161
Del 0.535344 0.939152 0.139125 0.0660417 0.456719 0.760045 0.679085 0.526283 0.519897 0.762886 0.749222 0.524419 0.0975472 0.88235 0.764716 0.226638 0.0388534 0.18547 0.504807 0.150968 0.0590159 0.873224 0.916061 0.936334 0.440911 0.162631 0.848013 0.816632 0.00405049 0.479914
AugLoad 0.729814 0.0760729 0.885459 0.906993 0.895352 0.280133 0.93752 0.146973 0.709328 0.322003 0.20129 0.737029 0.724476 0.814868 0.592663 0.0697571 0.70505 0.929218 0.906832 0.316185 0.752392 0.0316201 0.194847 0.432147 0.403132 0.486184 0.118985 0.834094 0.870443 0.693497
AugStore 0.925371 0.520621 0.302257 0.0636598 0.645569 0.0409114 0.7016 0.798739 0.611782 0.360574 0.771787 0.299673 0.597983 0.597736 0.90143 0.147573 0.135738 0.110935 0.516033 0.890983 0.757956 0.460269 0.460217 0.747597 0.880706 0.379279 0.314547 0.69929 0.556094 0.287877
Param 0.287412 0.504239 0.240152 0.473556 0.405025 0.640143 0.958559 0.0584456 0.151162 0.00152809 0.689787 0.720056 0.698228 0.676727 0.362127 0.307594 0.641803 0.27617 0.779864 0.162768 0.274336 0.954333 0.90813 0.429296 0.366857 0.201091 0.984279 0.665529 0.166059 0.433413
Ellipsis 0.95128 0.846565 0.0122904 0.0596621 0.185496 0.815417 0.155704 0.518622 0.300616 0.116997 0.0214928 0.429188 0.834973 0.957427 0.0485438 0.202022 0.329011 0.41727 0.548841 0.0151019 0.195598 0.447102 0.750248 0.64599 0.830248 0.450738 0.0181316 0.473591 0.943815 0.813459
Slice 0.134984 0.158233 0.36384 0.161299 0.964393 0.266483 0.688502 0.448096 0.92609 0.897895 0.519829 0.518877 0.404874 0.746155 0.766991 0.883499 0.600125 0.636398 0.765742 0.442699 0.594441 0.119481 0.47891 0.778771 0.483774 0.621124 0.784101 0.166266 0.29033 0.962748
ExtSlice 0.98304 0.937937 0.146603 0.828425 0.233503 0.183178 0.824544 0.642822 0.748331 0.0372777 0.0133889 0.702347 0.62494 0.136263 0.851625 0.393157 0.268917 0.693659 0.87652 0.938331 0.459027 0.499255 0.831179 0.0691702 0.708352 0.070405 0.163141 0.303717 0.538874 0.279439
Index 0.774735 0.734851 0.6648 0.662027 0.74232 0.929068 0.0236317 0.146599 0.430172 0.760292 0.236163 0.989633 0.473716 0.306316 0.431084 0.775734 0.584979 0.292045 0.494541 0.308848 0.603668 0.885025 0.289783 0.875777 0.442495 0.187285 0.365166 0.882509 0.166595 0.3686
And 0.719044 0.79819 0.759498 0.209815 0.297545 0.14608 0.827149 0.036135 0.128049 0.779378 0.369932 0.627926 0.965157 0.413228 0.444648 0.436221 0.60687 0.855308 0.692297 0.398099 0.867795 0.377061 0.0220206 0.422658 0.954991 0.219823 0.187612 0.667091 0.237243 0.800168
Or 0.814882 0.197199 0.264589 0.923906 0.783196 0.927381 0.065631 0.725523 0.431926 0.990547 0.937963 0.826892 0.932341 0.616772 0.357076 0.394021 0.0293714 0.900505 0.748449 0.678992 0.942026 0.746596 0.877417 0.361111 0.517136 0.0253452 0.3539 0.741123 0.304659 0.0263139
Add 0.776321 0.1815 0.434083 0.364582 0.833965 0.997494 0.819973 0.159893 0.466328 0.549549 0.412019 0.330932 0.166987 0.454159 0.839549 0.402966 0.28985 0.0578711 0.528933 0.74647 0.120469 0.123322 0.293343 0.77608 0.961733 0.614376 0.0356696 0.319285 0.163716 0.0951837
Sub 0.34107 0.896123 0.431469 0.761582 0.176907 0.920873 0.309585 0.208888 0.927881 0.404625 0.587055 0.239855 0.491901 0.128234 0.350705 0.34788 0.15511 0.682129 0.176379 0.0794516 0.947019 0.642769 0.996184 0.0048721 0.814418 0.417291 0.604205 0.853422 0.948517 0.929739
Mult 0.696607 0.984494 0.274548 0.627023 0.821858 0.319647 0.297196 0.646371 0.0327289 0.146427 0.486183 0.608679 0.60274 0.896312 0.47006 0.250923 0.312708 0.269153 0.319514 0.562903 0.260131 0.914341 0.524782 0.386658 0.697721 0.79433 0.0369989 0.956652 0.320409 0.896961
Div 0.222336 0.996907 0.932736 0.583068 0.687461 0.481225 0.569443 0.618985 0.283642 0.317448 0.183553 0.866828 0.00657725 0.37248 0.343038 0.509833 0.681033 0.642293 0.292667 0.0477837 0.136696 0.0523294 0.804073 0.24786 0.229836 0.273878 0.319764 0.48712 0.328813 0.382972
Mod 0.197177 0.927866 0.695834 0.244757 0.368526 0.34275 0.707642 0.695398 0.274969 0.494135 0.0879954 0.0954077 0.669445 0.747963 0.315135 0.728565 0.992461 0.359128 0.580499 0.543126 0.077898 0.382547 0.997589 0.135816 0.430715 0.340707 0.964239 0.804253 0.222677 0.249874
Pow 0.049426 0.624635 0.449994 0.615194 0.010322 0.714298 0.161485 0.406257 0.61967 0.229237 0.762644 0.12255 0.799277 0.26767 0.366107 0.256347 0.904986 0.32286 0.0460403 0.369902 0.653619 0.568529 0.835339 0.652912 0.222952 0.240697 0.42611 0.780719 0.244201 0.159113
LShift 0.58705 0.125445 0.0910488 0.233484 0.918263 0.956505 0.708084 0.0735601 0.841002 0.0353664 0.524272 0.290253 0.0233753 0.161854 0.619291 0.436603 0.973432 0.496469 0.829626 0.91257 0.358711 0.640252 0.106643 0.769479 0.652701 0.401492 0.644834 0.0140874 0.780417 0.932139
RShift 0.869621 0.53391 0.109408 0.9212 0.338149 0.307744 0.168767 0.261467 0.840912 0.776659 0.673944 0.075321 0.00934458 0.878595 0.922084 0.381695 0.496294 0.302856 0.787532 0.290823 0.194474 0.387037 0.537838 0.912614 0.301517 0.429393 0.614888 0.692263 0.734465 0.904469
BitOr 0.197766 0.895434 0.467195 0.834855 0.960075 0.702635 0.185128 0.174939 0.544524 0.033253 0.237303 0.508799 0.6803 0.936941 0.338058 0.70959 0.929697 0.053099 0.805901 0.417306 0.316668 0.986608 0.517021 0.066328 0.119112 0.928714 0.799396 0.383213 0.826387 0.304218
BitXor 0.242785 0.761865 0.262458 0.176488 0.0398036 0.238689 0.0365897 0.614893 0.845819 0.474234 0.58905 0.969437 0.542238 0.189097 0.934591 0.834071 0.527528 0.650808 0.864871 0.32585 0.409989 0.020185 0.979093 0.380925 0.849431 0.44202 0.280291 0.89985 0.0815854 0.867804
BitAnd 0.9899 0.374568 0.598202 0.221159 0.892456 0.521307 0.69104 0.905245 0.291232 0.169969 0.163961 0.256467 0.737246 0.804342 0.116817 0.48324 0.0519758 0.528786 0.301463 0.590674 0.771033 0.726221 0.654498 0.54135 0.468639 0.101217 0.703644 0.574346 0.759147 0.296042
FloorDiv 0.872711 0.948519 0.321177 0.00516789 0.086106 0.664062 0.728938 0.799101 0.758512 0.685277 0.530341 0.529305 0.340926 0.409226 0.0898605 0.986414 0.128771 0.801301 0.519443 0.624997 0.909012 0.63636 0.60032 0.353632 0.967176 0.613764 0.93178 0.923939 0.188186 0.673197
Invert 0.211808 0.521426 0.0273523 0.0623986 0.63851 0.0288025 0.446254 0.194022 0.346167 0.115787 0.175247 0.78117 0.486619 0.0484166 0.0288867 0.798471 0.532552 0.116497 0.559108 0.282845 0.677448 0.378996 0.863249 0.140765 0.396202 0.749399 0.693365 0.550953 0.659193 0.40503
Not 0.8475 0.214515 0.587455 0.96567 0.653803 0.758671 0.784584 0.756911 0.674435 0.287166 0.0414714 0.329484 0.932131 0.596769 0.289396 0.838542 0.396939 0.718807 0.95065 0.931204 0.54676 0.143011 0.504446 0.859059 0.892709 0.135174 0.187431 0.200691 0.177337 0.102287
UAdd 0.729341 0.494267 0.2515 0.490991 0.819696 0.931602 0.23703 0.554741 0.716969 0.665259 0.46414 0.603768 0.178261 0.24011 0.877501 0.857824 0.779368 0.389591 0.374436 0.771715 0.333411 0.886101 0.93638 0.701173 0.485376 0.20832 0.0461663 0.193942 0.524012 0.618837
USub 0.213904 0.112288 0.00509787 0.999021 0.506937 0.781123 0.677866 0.686435 0.0309078 0.871076 0.98809 0.186861 0.131774 0.262769 0.294459 0.802969 0.10036 0.964867 0.921789 0.182757 0.214482 0.236565 0.311909 0.967522 0.231818 0.799431 0.572694 0.36155 0.549015 0.928631
Eq 0.0998613 0.996807 0.770661 0.32995 0.141241 0.779757 0.36395 0.869935 0.501193 0.707452 0.688838 0.949691 0.974286 0.9073 0.17198 0.199741 0.580744 0.746814 0.817664 0.116968 0.994259 0.209216 0.76867 0.763417 0.206058 0.278845 0.306293 0.113588 0.808533 0.085289
NotEq 0.910563 0.374193 0.503605 0.461013 0.405855 0.202493 0.655163 0.192564 0.354129 0.85714 0.520284 0.423815 0.706204 0.0869188 0.805997 0.96804 0.758911 0.551714 0.760407 0.461694 0.84682 0.226897 0.40928 0.130882 0.873325 0.795895 0.785568 0.807377 0.0386221 0.0986843
Lt 0.853794 0.781408 0.733359 0.159817 0.400383 0.575148 0.853253 0.220136 0.942605 0.522094 0.634088 0.704971 0.936904 0.590145 0.579591 0.904381 0.387823 0.711603 0.487641 0.238821 0.735035 0.163412 0.313555 0.577475 0.358231 0.451727 0.728934 0.189618 0.179427 0.935248
LtE 0.793841 0.418981 0.487296 0.00625967 0.638186 0.576993 0.79328 0.447518 0.273648 0.173895 0.782067 0.0355638 0.0856332 0.705764 0.64916 0.100679 0.0117393 0.622977 0.0812573 0.950891 0.581046 0.15739 0.516103 0.0293133 0.996085 0.103648 0.228783 0.804735 0.1778 0.524151
Gt 0.570386 0.734601 0.603573 0.579341 0.529536 0.169857 0.429024 0.165699 0.402842 0.317748 0.932185 0.106427 0.282514 0.269908 0.169432 0.967252 0.87296 0.284717 0.302443 0.584306 0.67134 0.252038 0.602419 0.378349 0.398902 0.851686 0.366696 0.165196 0.180775 0.725239
GtE 0.235152 0.419583 0.708001 0.704313 0.229999 0.484972 0.0917808 0.622189 0.686882 0.916834 0.825709 0.82643 0.455105 0.321441 0.148922 0.383663 0.638328 0.589958 0.252633 0.139548 0.0744399 0.288974 0.829427 0.881938 0.0103728 0.605599 0.0829509 0.241336 0.637045 0.453798
Is 0.233695 0.969852 0.710759 0.60083 0.320769 0.302879 0.515003 0.932529 0.836596 0.464375 0.882181 0.144442 0.634616 0.435058 0.335188 0.659554 0.188838 0.148943 0.948448 0.738025 0.147642 0.700244 0.0952746 0.0607319 0.812956 0.105418 0.93149 0.0728853 0.320896 0.444189
IsNot 0.362728 0.9339 0.442148 0.551695 0.00396264 0.124858 0.0113527 0.199418 0.671905 0.830159 0.271127 0.925707 0.673136 0.53943 0.819392 0.871629 0.711764 0.467914 0.36471 0.837169 0.836934 0.78638 0.27597 0.556523 0.577961 0.6522 0.232962 0.242934 0.048934 0.333887
In 0.934366 0.0816066 0.553727 0.6197 0.502466 0.818422 0.235367 0.0263741 0.920396 0.696159 0.0613952 0.308505 0.140667 0.774056 0.661093 0.991632 0.334433 0.281058 0.0182663 0.563867 0.853277 0.315687 0.73056 0.0116862 0.543895 0.765624 0.987526 0.979891 0.276243 0.324825
NotIn 0.066624 0.905524 0.621454 0.242328 0.0419542 0.505479 0.997071 0.195344 0.0990754 0.716063 0.512671 0.243879 0.7275 0.705281 0.311048 0.949672 0.945749 0.597565 0.805536 0.48429 0.374692 0.916834 0.0164015 0.253686 0.247055 0.599634 0.825202 0.401933 0.897684 0.306473
comprehension 0.789136 0.0964059 0.761016 0.85407 0.943719 0.907152 0.844576 0.0425794 0.697873 0.514748 0.603965 0.998303 0.968266 0.37081 0.216642 0.506026 0.283295 0.320051 0.68083 0.704448 0.491611 0.213213 0.976518 0.242199 0.740827 0.41246 0.929194 0.868019 0.829654 0.229802
ExceptHandler 0.123229 0.899031 0.923817 0.464494 0.476529 0.411706 0.733582 0.0819395 0.697838 0.576519 0.300703 0.622014 0.602031 0.328532 0.568783 0.547145 0.777605 0.687583 0.110003 0.392828 0.221411 0.3502 0.57815 0.371148 0.447968 0.158122 0.0790254 0.476834 0.115618 0.645273
arguments 0.177239 0.675897 0.0769101 0.535418 0.922458 0.0182516 0.368468 0.0037633 0.512275 0.449623 0.341434 0.725206 0.572099 0.196889 0.0458466 0.726385 0.843794 0.0643681 0.685882 0.85065 0.374518 0.921534 0.957825 0.996709 0.315071 0.73906 0.284298 0.775348 0.872029 0.122465
keyword 0.315519 0.226824 0.824592 0.065073 0.672193 0.554836 0.833593 0.853498 0.696518 0.489002 0.806352 0.338621 0.544135 0.802678 0.733522 0.208111 0.301945 0.484109 0.669445 0.558377 0.164509 0.086833 0.628345 0.208284 0.520992 0.516846 0.929261 0.287652 0.785107 0.470065
alias 0.0781263 0.34832 0.738524 0.0924618 0.180629 0.964933 0.429012 0.782797 0.165555 0.0419201 0.786623 0.644318 0.522903 0.928614 0.148262 0.121016 0.124047 0.0527836 0.557376 0.855505 0.126475 0.166494 0.835512 0.97483 0.285661 0.279278 0.688677 0.875388 0.169718 0.444959
