92 30
Module 0.630574 0.615648 0.51887 0.172593 0.0737135 0.920013 0.225037 0.99248 0.668648 0.0938709 0.819973 0.727433 0.181216 0.0830859 0.0663562 0.300317 0.117572 0.366335 0.263808 0.450276 0.29755 0.832118 0.732594 0.673833 0.417334 0.190883 0.188874 0.287676 0.493172 0.820652
Interactive 0.946373 0.787533 0.698779 0.404505 0.242359 0.816021 0.0792321 0.768627 0.372126 0.632296 0.607531 0.146917 0.0161821 0.474844 0.0771738 0.910266 0.191962 0.354055 0.512145 0.0627325 0.815145 0.343064 0.0945044 0.217852 0.957109 0.122581 0.759184 0.978394 0.931984 0.17495
Expression 0.29716 0.848723 0.589567 0.420134 0.912089 0.146862 0.608713 0.432265 0.327035 0.964025 0.878941 0.60187 0.91916 0.721146 0.221423 0.538885 0.852921 0.0521374 0.956427 0.339726 0.892573 0.521657 0.889962 0.30814 0.407695 0.558786 0.0130668 0.162604 0.845273 0.835521
FunctionDef 0.694806 0.0839589 0.572212 0.808032 0.502629 0.631683 0.7401 0.920726 0.821124 0.794293 0.127637 0.630825 0.922739 0.647007 0.367625 0.628727 0.725746 0.360154 0.640914 0.940465 0.733724 0.793609 0.725369 0.223046 0.396764 0.321522 0.181368 0.428008 0.244173 0.164465
ClassDef 0.866631 0.941988 0.691066 0.123123 0.992533 0.932812 0.236458 0.307539 0.2962 0.354939 0.115647 0.0977571 0.219433 0.858693 0.956003 0.145551 0.667661 0.789516 0.365959 0.438417 0.879778 0.305137 0.0400367 0.948151 0.454753 0.703035 0.126408 0.133454 0.467096 0.174743
Return 0.943137 0.726409 0.178916 0.0457278 0.599049 0.660901 0.164653 0.395376 0.655703 0.570664 0.515328 0.56951 0.45834 0.0215396 0.945833 0.882528 0.892528 0.583909 0.958537 0.0913784 0.540712 0.84379 0.487292 0.230761 0.823662 0.489199 0.491442 0.789535 0.864281 0.311782
Delete 0.572736 0.993443 0.0298597 0.784022 0.370832 0.85705 0.560827 0.394468 0.109674 0.182689 0.0570577 0.34393 0.998375 0.705343 0.950938 0.117993 0.201392 0.447293 0.903819 0.345175 0.556521 0.938018 0.832687 0.445429 0.835167 0.0563961 0.890992 0.168568 0.724592 0.313409
Assign 0.971224 0.913268 0.801574 0.67153 0.50357 0.719601 0.207582 0.418742 0.464833 0.596602 0.110744 0.376754 0.0723853 0.164671 0.836386 0.0561207 0.217166 0.234234 0.314357 0.478455 0.622584 0.759297 0.860337 0.260443 0.428544 0.88991 0.291496 0.63066 0.143836 0.389488
AugAssign 0.774158 0.588701 0.54324 0.528493 0.830858 0.693358 0.409259 0.679814 0.164923 0.548187 0.966394 0.298437 0.582892 0.0855318 0.653183 0.0646384 0.706559 0.225027 0.201618 0.875899 0.920382 0.699715 0.200636 0.930216 0.745283 0.989441 0.621455 0.527909 0.85538 0.915581
Print 0.00793352 0.255266 0.315775 0.74083 0.602894 0.247137 0.43049 0.67534 0.153874 0.791964 0.808407 0.183974 0.979897 0.135402 0.949837 0.693995 0.886035 0.229255 0.670534 0.214718 0.0805837 0.541378 0.358297 0.848949 0.850035 0.865638 0.880527 0.49066 0.438556 0.902288
For 0.899024 0.950869 0.572324 0.0424524 0.9184 0.0467068 0.406048 0.00316026 0.145896 0.342071 0.424582 0.837284 0.779883 0.729317 0.479713 0.886876 0.940355 0.937695 0.19171 0.726605 0.264373 0.908071 0.292931 0.0597676 0.562797 0.630147 0.0352879 0.824345 0.270235 0.347279
While 0.964144 0.460579 0.528867 0.315859 0.538987 0.0066492 0.399887 0.498562 0.894675 0.230431 0.261229 0.859921 0.388146 0.983564 0.7589 0.507424 0.340156 0.356586 0.137629 0.356176 0.583607 0.0764922 0.348967 0.215229 0.923409 0.663329 0.110883 0.729024 0.697814 0.554397
If 0.325513 0.488753 0.926951 0.7235 0.171209 0.12079 0.592311 0.229302 0.551941 0.519868 0.988349 0.949596 0.293103 0.405032 0.0514767 0.124704 0.904128 0.521413 0.61627 0.320072 0.447334 0.53898 0.381525 0.277904 0.369481 0.100015 0.213695 0.932377 0.218792 0.0508243
With 0.151693 0.567255 0.457095 0.107509 0.845565 0.546818 0.280878 0.279992 0.911721 0.563868 0.128563 0.361114 0.0783817 0.94207 0.887655 0.429884 0.14907 0.0258042 0.765588 0.58674 0.355436 0.874927 0.515877 0.178646 0.626438 0.717299 0.636483 0.859858 0.467517 0.917519
Raise 0.303046 0.642292 0.374829 0.346532 0.218337 0.496497 0.148236 0.644029 0.717119 0.0483348 0.57303 0.64476 0.716088 0.662299 0.497707 0.779881 0.622716 0.78544 0.972828 0.71888 0.360528 0.800097 0.0801883 0.957245 0.809084 0.915169 0.124669 0.701128 0.850491 0.968544
TryExcept 0.738697 0.89184 0.513153 0.95814 0.623134 0.637239 0.434258 0.185326 0.111678 0.68904 0.394998 0.742634 0.319382 0.32046 0.166928 0.135545 0.239255 0.714303 0.439896 0.355293 0.0704316 0.19206 0.708881 0.697771 0.970254 0.28076 0.299298 0.389905 0.83751 0.436156
TryFinally 0.884665 0.00953388 0.822011 0.697426 0.870353 0.184394 0.988335 0.202655 0.328554 0.810929 0.500659 0.847412 0.563306 0.706381 0.146033 0.828521 0.149199 0.16616 0.119971 0.507486 0.297036 0.269835 0.64988 0.683283 0.00492728 0.0167677 0.323826 0.215709 0.976299 0.854337
Assert 0.946677 0.763816 0.566979 0.891596 0.342426 0.113761 0.999304 0.858663 0.41988 0.91154 0.605719 0.163894 0.395842 0.749488 0.257569 0.900314 0.480169 0.173472 0.603148 0.153383 0.469564 0.224252 0.774856 0.922553 0.708881 0.055887 0.70548 0.630953 0.159994 0.100473
Import 0.805854 0.147892 0.0700777 0.965777 0.0726135 0.929055 0.179735 0.213042 0.479855 0.425204 0.280795 0.597409 0.202408 0.629761 0.649557 0.820292 0.226771 0.247185 0.0337012 0.462531 0.348098 0.601113 0.481969 0.417948 0.0415864 0.113443 0.460641 0.135525 0.326266 0.290284
ImportFrom 0.727751 0.0466167 0.604599 0.844607 0.971678 0.427114 0.295675 0.875904 0.932047 0.257497 0.349539 0.175326 0.00497866 0.291044 0.382715 0.902945 0.528167 0.914478 0.524757 0.458665 0.726336 0.913329 0.469271 0.376493 0.816459 0.832245 0.887405 0.909605 0.915034 0.572206
Exec 0.0128598 0.0702024 0.211113 0.895595 0.140477 0.933439 0.0305851 0.612769 0.137361 0.94859 0.88377 0.931799 0.375996 0.568223 0.745362 0.176079 0.0102148 0.18549 0.933537 0.144757 0.529929 0.445086 0.0248641 0.760742 0.787723 0.534396 0.82296 0.427715 0.401954 0.161581
Global 0.222348 0.726532 0.660594 0.562718 0.52341 0.849865 0.233227 0.974887 0.11338 0.457802 0.602872 0.523665 0.88471 0.229349 0.79768 0.106734 0.591324 0.116503 0.206081 0.670586 0.213683 0.349946 0.95447 0.625165 0.398588 0.0403409 0.875048 0.357481 0.851751 0.52828
Expr 0.386997 0.198239 0.92171 0.707965 0.651657 0.731578 0.925372 0.725976 0.81774 0.73386 0.253908 0.918005 0.926212 0.737737 0.674987 0.236796 0.203265 0.342521 0.773059 0.97321 0.523345 0.380192 0.608267 0.0912495 0.475589 0.468909 0.715656 0.401585 0.372882 0.922206
Pass 0.830171 0.999152 0.502683 0.611206 0.728565 0.901673 0.832727 0.483677 0.464641 0.175926 0.316327 0.119516 0.145586 0.960562 0.568727 0.768471 0.581923 0.74628 0.407853 0.214668 0.550452 0.605136 0.655741 0.589844 0.826938 0.649352 0.508487 0.492935 0.0567689 0.793072
Break 0.0717901 0.899514 0.160769 0.33784 0.632221 0.17875 0.13083 0.60314 0.79284 0.544105 0.585902 0.257142 0.81321 0.0648316 0.25749 0.788649 0.865111 0.0231037 0.0434879 0.590622 0.0717803 0.382151 0.700946 0.430626 0.811843 0.176222 0.816478 0.582059 0.254775 0.128985
Continue 0.0733508 0.913551 0.278545 0.339438 0.919248 0.531411 0.273126 0.0631158 0.94415 0.578461 0.59528 0.92803 0.744476 0.448695 0.340418 0.204846 0.738846 0.685696 0.726871 0.336163 0.575545 0.144814 0.950535 0.565317 0.807074 0.458604 0.150135 0.00568688 0.0505855 0.0787586
attributes 0.856184 0.193847 0.106103 0.305634 0.240325 0.779203 0.204062 0.717389 0.519897 0.802492 0.130836 0.624484 0.97366 0.363302 0.038846 0.000622511 0.693554 0.0979432 0.891822 0.862969 0.123721 0.59389 0.779314 0.319429 0.924682 0.519824 0.231967 0.313378 0.319356 0.850503
BoolOp 0.693949 0.24975 0.927995 0.632336 0.337997 0.0802026 0.298201 0.41326 0.365302 0.451437 0.389143 0.563422 0.8996 0.279301 0.0687351 0.645733 0.391056 0.434997 0.125866 0.717471 0.776194 0.452919 0.549202 0.89183 0.306001 0.477646 0.575066 0.52769 0.895834 0.777769
BinOp 0.266374 0.187813 0.692371 0.265244 0.130141 0.676014 0.486239 0.110082 0.354899 0.524915 0.517362 0.62958 0.0825353 0.414373 0.0976825 0.00594434 0.106102 0.182063 0.845867 0.0624284 0.0298181 0.541779 0.850114 0.801154 0.894041 0.812106 0.0514203 0.767744 0.233445 0.466956
UnaryOp 0.959612 0.239905 0.96899 0.857609 0.386549 0.648454 0.583902 0.596412 0.438041 0.51414 0.359514 0.739555 0.510424 0.222927 0.0183741 0.970849 0.95018 0.274733 0.711711 0.810286 0.614964 0.824099 0.692308 0.841456 0.918124 0.607447 0.0430033 0.715857 0.0373312 0.59042
Lambda 0.167732 0.287 0.163768 0.0368252 0.36037 0.609903 0.1466 0.0485711 0.679766 0.772197 0.917013 0.7903 0.449743 0.456092 0.105351 0.682269 0.17539 0.805528 0.106651 0.440052 0.143907 0.079125 0.50616 0.248542 0.661364 0.586178 0.724029 0.630265 0.42105 0.13843
IfExp 0.7273 0.27411 0.58215 0.931114 0.0898089 0.535795 0.44204 0.893506 0.151615 0.17622 0.508625 0.856319 0.275377 0.644455 0.658625 0.988493 0.902024 0.134338 0.765809 0.174487 0.792574 0.179028 0.270838 0.482198 0.262646 0.842629 0.210415 0.498538 0.565346 0.891203
Dict 0.736869 0.911509 0.495142 0.605863 0.219272 0.246863 0.67327 0.492141 0.20433 0.615912 0.28871 0.931987 0.237347 0.909764 0.33185 0.219931 0.465904 0.133025 0.326441 0.0319664 0.495742 0.87743 0.800818 0.11847 0.556467 0.593928 0.520419 0.818324 0.156107 0.669827
Set 0.548904 0.844206 0.0109739 0.561041 0.308473 0.431344 0.876432 0.737967 0.512734 0.264261 0.0138898 0.731128 0.0622609 0.658076 0.110064 0.269544 0.193865 0.345856 0.821479 0.979697 0.694078 0.403393 0.398325 0.908285 0.879113 0.667465 0.993531 0.90353 0.814241 0.28299
ListComp 0.0767639 0.909226 0.781806 0.083287 0.425727 0.35294 0.15569 0.495081 0.00319886 0.789561 0.726447 0.290635 0.587143 0.651375 0.185736 0.0657927 0.532521 0.407919 0.492824 0.0854548 0.877821 0.692704 0.369639 0.0961156 0.479735 0.0578992 0.181479 0.640076 0.25904 0.172642
SetComp 0.668606 0.505266 0.456811 0.600013 0.698571 0.823639 0.742476 0.401317 0.304883 0.708313 0.845394 0.756146 0.979551 0.166016 0.434911 0.585146 0.1664 0.967566 0.0499318 0.743802 0.798809 0.685541 0.83774 0.614006 0.125607 0.853689 0.461779 0.179276 0.462646 0.914509
DictComp 0.20841 0.380933 0.342062 0.0045253 0.383776 0.896247 0.111295 0.0174147 0.843692 0.183202 0.108676 0.439998 0.648206 0.297163 0.632383 0.185434 0.498963 0.339307 0.930247 0.572205 0.818409 0.789779 0.522817 0.789492 0.53674 0.867142 0.305652 0.571912 0.243614 0.434645
GeneratorExp 0.786208 0.655547 0.600258 0.0316309 0.169638 0.768969 0.234273 0.796313 0.88422 0.0636249 0.392792 0.488845 0.953586 0.862713 0.77077 0.454653 0.78487 0.53021 0.61115 0.997927 0.562643 0.480295 0.40624 0.191838 0.279677 0.827125 0.553281 0.696781 0.360929 0.0443627
Yield 0.69123 0.821422 0.129496 0.188046 0.578833 0.0903733 0.119778 0.403289 0.612388 0.299444 0.604207 0.447811 0.00917137 0.720024 0.0603067 0.231133 0.472482 0.271973 0.378434 0.709934 0.0544579 0.367681 0.374618 0.1068 0.908142 0.196594 0.205044 0.407379 0.930621 0.393534
Compare 0.72279 0.0780586 0.288083 0.805116 0.0793148 0.265853 0.814149 0.112547 0.275889 0.914712 0.775659 0.917929 0.186906 0.34734 0.109659 0.492509 0.214239 0.444294 0.363252 0.667391 0.0530196 0.0617008 0.698241 0.934015 0.559742 0.0464526 0.848226 0.836878 0.634623 0.226926
Call 0.82757 0.0521052 0.163986 0.831744 0.971637 0.410327 0.408375 0.0635036 0.539011 0.155297 0.796141 0.043403 0.541556 0.985224 0.278933 0.700809 0.624892 0.729579 0.794959 0.378209 0.148106 0.232729 0.123786 0.788418 0.951776 0.137746 0.322942 0.776607 0.246376 0.89977
Repr 0.315159 0.286515 0.292516 0.742324 0.889838 0.901366 0.192763 0.599738 0.526543 0.865298 0.950908 0.801044 0.181009 0.353986 0.436749 0.0186989 0.675009 0.855687 0.097406 0.16404 0.351889 0.617037 0.984151 0.821766 0.101235 0.236196 0.541193 0.713946 0.0224559 0.62809
Num 0.892182 0.830086 0.426191 0.343394 0.218001 0.136675 0.0746654 0.809561 0.352442 0.802417 0.761662 0.12295 0.609012 0.716271 0.161047 0.223053 0.567451 0.355632 0.830449 0.817589 0.00455948 0.004097 0.521524 0.848314 0.656532 0.558789 0.15664 0.171137 0.567434 0.412936
Str 0.250056 0.202093 0.121284 0.31642 0.83368 0.0974317 0.772052 0.469351 0.770895 0.987261 0.166116 0.466956 0.0368034 0.547832 0.224927 0.0831054 0.667833 0.422842 0.283545 0.254753 0.959635 0.540742 0.110749 0.63265 0.734207 0.872318 0.263439 0.00497735 0.419354 0.392715
Attribute 0.980786 0.844095 0.165373 0.969427 0.457703 0.408275 0.903723 0.67206 0.527659 0.191911 0.206419 0.121419 0.979618 0.267467 0.888326 0.419504 0.288886 0.245659 0.10919 0.729349 0.70578 0.266379 0.451629 0.94021 0.9932 0.440472 0.256061 0.552379 0.882756 0.59219
Subscript 0.500034 0.0629038 0.668805 0.780737 0.0482934 0.178411 0.469531 0.362871 0.0870305 0.124341 0.819364 0.110862 0.749929 0.766104 0.917432 0.077076 0.358984 0.422806 0.323537 0.155706 0.652609 0.648135 0.626416 0.533521 0.760685 0.881708 0.474424 0.772733 0.973758 0.042599
Name 0.0931752 0.221716 0.884195 0.415552 0.321639 0.504565 0.64727 0.129334 0.557518 0.312299 0.416021 0.109424 0.0534228 0.398774 0.286559 0.531846 0.859721 0.313332 0.999137 0.261417 0.697642 0.575562 0.121783 0.244037 0.161573 0.455551 0.0374509 0.176906 0.74403 0.671536
List 0.402039 0.965519 0.326916 0.282621 0.393674 0.292143 0.117274 0.677754 0.192895 0.754721 0.052269 0.173323 0.746165 0.398829 0.37994 0.345936 0.161357 0.441398 0.446958 0.554655 0.856152 0.294586 0.110152 0.42192 0.0597055 0.552211 0.49074 0.641061 0.377119 0.0795523
Tuple 0.157971 0.301531 0.466259 0.091033 0.220888 0.0262322 0.381386 0.52936 0.224565 0.751526 0.0914071 0.972266 0.866857 0.440844 0.851844 0.38171 0.449202 0.633057 0.952328 0.887022 0.755434 0.992199 0.422228 0.827662 0.773785 0.877744 0.323922 0.441977 0.532459 0.108216
Load 0.554137 0.277931 0.0296202 0.930154 0.315885 0.4043 0.218218 0.467795 0.911179 0.967843 0.0557933 0.577877 0.719816 0.682415 0.545997 0.182166 0.316166 0.0696923 0.749616 0.72891 0.528964 0.205246 0.652936 0.935759 0.366249 0.946738 0.885624 0.90769 0.475376 0.652758
Store 0.368014 0.939359 0.195621 0.572512 0.871505 0.0779391 0.064641 0.751139 0.648185 0.152188 0.806902 0.328041 0.742736 0.97846 0.631277 0.179696 0.814406 0.999971 0.572928 0.741301 0.0582407 0.956392 0.184319 0.65575 0.521689 0.637871 0.110426 0.898549 0.746894 0.958941
Del 0.289061 0.887578 0.428572 0.196524 0.79879 0.0320097 0.693911 0.604869 0.439082 0.984703 0.323575 0.079578 0.219327 0.992849 0.231662 0.804395 0.140516 0.149231 0.430905 0.503646 0.0946825 0.886702 0.249373 0.730034 0.386719 0.448387 0.0325472 0.382345 0.878575 0.290113
AugLoad 0.292554 0.356416 0.855563 0.214288 0.46239 0.438967 0.501609 0.333551 0.535166 0.182177 0.29521 0.721727 0.0619593 0.508598 0.130119 0.292342 0.0104846 0.310566 0.881437 0.202987 0.256592 0.70876 0.105687 0.926223 0.442618 0.433403 0.181352 0.0877403 0.167932 0.400046
AugStore 0.792582 0.509423 0.162737 0.845859 0.21149 0.514544 0.290502 0.2439 0.354294 0.616215 0.821324 0.509166 0.618688 0.263943 0.619033 0.992344 0.449036 0.446798 0.515788 0.827071 0.122698 0.928913 0.267032 0.690234 0.483335 0.86953 0.522879 0.2899 0.0409551 0.797714
Param 0.147822 0.725824 0.732152 0.577143 0.419236 0.630283 0.0280509 0.861841 0.625036 0.298891 0.275251 0.845755 0.092106 0.282836 0.45361 0.067246 0.491838 0.168716 0.591573 0.354759 0.0130837 0.193988 0.127971 0.356268 0.49587 0.698353 0.381263 0.694578 0.250288 0.318015
Ellipsis 0.0448114 0.311285 0.651116 0.19567 0.936015 0.737136 0.850425 0.0510581 0.342974 0.00610542 0.692488 0.903304 0.163733 0.527485 0.0025866 0.417533 0.1339 0.982661 0.49235 0.745727 0.0291628 0.533559 0.566176 0.986801 0.776194 0.682729 0.170997 0.924691 0.623146 0.322679
Slice 0.305473 0.861937 0.525009 0.00708754 0.935443 0.138629 0.276297 0.65694 0.0284838 0.483126 0.0407416 0.386628 0.680694 0.362362 0.461063 0.0279799 0.261783 0.326028 0.626717 0.82188 0.294327 0.598738 0.625697 0.110951 0.908722 0.440961 0.988344 0.377086 0.267886 0.895322
ExtSlice 0.289788 0.182498 0.110304 0.599154 0.276809 0.416542 0.61111 0.846092 0.103459 0.930399 0.953551 0.334914 0.669092 0.76158 0.120847 0.406207 0.699731 0.397735 0.0995743 0.894616 0.478598 0.502795 0.872781 0.0524663 0.60269 0.175194 0.678392 0.675509 0.67762 0.266321
Index 0.829921 0.668083 0.455472 0.0629562 0.0101779 0.427711 0.0225331 0.816159 0.691395 0.481731 0.598626 0.396598 0.955674 0.286007 0.46536 0.493743 0.303172 0.105235 0.662851 0.304273 0.772304 0.355385 0.248364 0.659191 0.708224 0.294079 0.353911 0.0992915 0.214364 0.866848
And 0.405021 0.445013 0.320214 0.246924 0.413707 0.839684 0.98379 0.103477 0.664265 0.14168 0.324934 0.96696 0.080465 0.521066 0.0169642 0.520434 0.723536 0.129647 0.0360683 0.589994 0.229331 0.570037 0.964032 0.501454 0.302376 0.919341 0.593853 0.767028 0.803615 0.706484
Or 0.770056 0.734585 0.939548 0.949936 0.58745 0.600314 0.111542 0.593506 0.138927 0.448798 0.857895 0.0906067 0.400841 0.647915 0.70103 0.776778 0.593628 0.723231 0.80147 0.583403 0.775266 0.776541 0.167924 0.370367 0.0687637 0.793621 0.191178 0.554812 0.802022 0.190847
Add 0.980596 0.343926 0.479047 0.762538 0.788857 0.46218 0.537755 0.0768182 0.873676 0.729268 0.565386 0.895581 0.22526 0.990097 0.195107 0.393496 0.706322 0.530483 0.209788 0.738654 0.449298 0.0588643 0.915032 0.848266 0.0824231 0.278265 0.932827 0.765221 0.00891083 0.7294
Sub 0.947588 0.650815 0.297093 0.641113 0.950734 0.254959 0.502166 0.553248 0.386568 0.723745 0.190522 0.420991 0.987771 0.262149 0.0137185 0.0280122 0.612576 0.141846 0.861592 0.463508 0.981364 0.853649 0.872921 0.655306 0.453778 0.929052 0.85734 0.540113 0.904428 0.45728
Mult 0.931534 0.146893 0.658958 0.138474 0.945773 0.827493 0.799122 0.285164 0.552777 0.396716 0.881222 0.574554 0.71138 0.213642 0.769324 0.735004 0.871113 0.693565 0.944498 0.787942 0.938584 0.774747 0.575263 0.647667 0.0667084 0.275485 0.0929574 0.298058 0.388116 0.448632
Div 0.271199 0.412781 0.454877 0.549175 0.107156 0.541807 0.227215 0.836831 0.542794 0.325439 0.445848 0.537192 0.643201 0.785522 0.644696 0.939233 0.959893 0.579188 0.110398 0.10086 0.415383 0.847981 0.348164 0.193841 0.605742 0.139949 0.52439 0.887166 0.954719 0.71541
Mod 0.707286 0.708818 0.201784 0.236651 0.41023 0.0755274 0.571192 0.616866 0.252272 0.130236 0.23359 0.121474 0.448944 0.566178 0.751158 0.629886 0.548648 0.501863 0.115349 0.524373 0.620407 0.662707 0.257621 0.433281 0.551378 0.0356071 0.646502 0.383342 0.649613 0.967615
Pow 0.642594 0.710297 0.862165 0.892782 0.450188 0.82842 0.952279 0.779372 0.389275 0.38981 0.656388 0.933369 0.759081 0.952526 0.914649 0.208448 0.31347 0.482356 0.0432101 0.0285466 0.828589 0.409386 0.292977 0.488637 0.65063 0.554774 0.232911 0.821363 0.446188 0.256684
LShift 0.256477 0.291283 0.648024 0.367966 0.236196 0.983674 0.00435007 0.303755 0.607687 0.916075 0.362093 0.426693 0.836455 0.561504 0.807026 0.535671 0.162034 0.549902 0.387566 0.910433 0.438234 0.597196 0.533748 0.494927 0.0354716 0.153416 0.465548 0.66775 0.120062 0.971548
RShift 0.528748 0.115929 0.647832 0.103383 0.805049 0.901967 0.596248 0.530502 0.2695 0.86948 0.261228 0.459619 0.446347 0.844427 0.537685 0.820856 0.66819 0.207323 0.285039 0.734186 0.58616 0.667447 0.73892 0.779685 0.15933 0.721308 0.00612962 0.688325 0.0137303 0.838147
BitOr 0.200694 0.931476 0.0409708 0.0110235 0.978297 0.18163 0.344661 0.0212486 0.574115 0.699844 0.116181 0.184408 0.472946 0.594244 0.371621 0.16759 0.79542 0.92546 0.653477 0.6174 0.646319 0.25189 0.506395 0.992224 0.0906175 0.22509 0.622131 0.118737 0.553921 0.574755
BitXor 0.219898 0.80899 0.461929 0.064666 0.646099 0.379187 0.887918 0.829931 0.01349 0.0309747 0.525072 0.690039 0.797987 0.0642521 0.397982 0.364221 0.615757 0.193438 0.251464 0.201317 0.764091 0.98919 0.0953178 0.652553 0.199428 0.613947 0.745908 0.754268 0.0331333 0.532827
BitAnd 0.755213 0.150893 0.515754 0.305338 0.868857 0.921146 0.306773 0.735687 0.401589 0.671421 0.0453358 0.323305 0.792244 0.848777 0.0362388 0.186144 0.447058 0.076056 0.0694338 0.983971 0.0774552 0.490406 0.0396891 0.768064 0.40817 0.34873 0.0683762 0.623248 0.411585 0.85673
FloorDiv 0.0571201 0.059441 0.390154 0.269654 0.668467 0.452164 0.512958 0.320533 0.987465 0.459353 0.253397 0.608411 0.76407 0.61353 0.0466085 0.767589 0.103438 0.689921 0.0482957 0.842198 0.18841 0.651997 0.227338 0.118331 0.446911 0.547199 0.228839 0.725116 0.870528 0.255152
Invert 0.210751 0.910031 0.940152 0.892923 0.254621 0.91112 0.880492 0.0783771 0.203747 0.339986 0.547666 0.964079 0.351541 0.614656 0.98178 0.369766 0.663517 0.937094 0.587316 0.449353 0.446946 0.214035 0.419565 0.297882 0.200229 0.62706 0.933415 0.579219 0.019999 0.705153
Not 0.891588 0.56628 0.845354 0.151274 0.639602 0.149229 0.288475 0.00881648 0.199443 0.130567 0.355993 0.351156 0.906651 0.869138 0.256051 0.744741 0.221216 0.0926328 0.0161393 0.439109 0.609317 0.770324 0.410757 0.00321639 0.0756651 0.306258 0.899225 0.00582325 0.966607 0.473986
UAdd 0.501722 0.353645 0.823923 0.650402 0.238896 0.425151 0.803798 0.204455 0.954095 0.288533 0.111651 0.230818 0.0993088 0.358751 0.116094 0.397837 0.239761 0.410125 0.025088 0.801809 0.0943047 0.556278 0.175455 0.360775 0.493018 0.618905 0.717702 0.579214 0.309752 0.187482
USub 0.419431 0.434913 0.195258 0.920166 0.895494 0.428426 0.900785 0.0831811 0.0537406 0.554694 0.0489938 0.432024 0.806772 0.742618 0.971469 0.853858 0.807191 0.938102 0.617243 0.927382 0.542329 0.627401 0.56103 0.0734962 0.71939 0.951058 0.759567 0.262978 0.990444 0.884225
Eq 0.208937 0.63508 0.580169 0.0260351 0.0734181 0.377574 0.790384 0.680637 0.0337567 0.226659 0.253837 0.737803 0.103227 0.799408 0.813144 0.0245606 0.914076 0.0485358 0.3002 0.715332 0.606532 0.390172 0.237204 0.0399411 0.459349 0.664541 0.340966 0.366453 0.364872 0.00207829
NotEq 0.167199 0.212339 0.621745 0.700981 0.555215 0.0158306 0.938582 0.380497 0.0502368 0.145607 0.865424 0.946914 0.778914 0.965337 0.29439 0.58555 0.066959 0.913131 0.395756 0.284863 0.0406331 0.0226158 0.257461 0.421694 0.594082 0.427296 0.160106 0.748116 0.629424 0.60086
Lt 0.52979 0.902272 0.476385 0.387797 0.772996 0.153884 0.673601 0.125069 0.585241 0.0199053 0.566437 0.734948 0.811645 0.462841 0.931896 0.890469 0.233721 0.72546 0.795251 0.258511 0.32324 0.0958391 0.923533 0.156044 0.18562 0.301633 0.813554 0.135279 0.728562 0.514616
LtE 0.223783 0.210584 0.0741754 0.102786 0.616623 0.849344 0.43125 0.663627 0.446745 0.671459 0.791369 0.0324038 0.815566 0.0224334 0.637447 0.565167 0.721905 0.457688 0.161397 0.609239 0.910705 0.694346 0.258205 0.89997 0.270935 0.19815 0.0838875 0.723299 0.0535527 0.899974
Gt 0.198468 0.42181 0.0583045 0.00666571 0.151388 0.522419 0.0310602 0.945891 0.7054 0.769752 0.801034 0.0764614 0.733263 0.00495052 0.5617 0.824632 0.895464 0.840359 0.621379 0.859732 0.332177 0.711859 0.496212 0.983815 0.556147 0.90301 0.0253074 0.514768 0.22035 0.526036
GtE 0.382795 0.3614 0.64396 0.711874 0.788829 0.842511 0.122779 0.188915 0.218747 0.813174 0.532699 0.566944 0.876315 0.77257 0.999507 0.844577 0.81509 0.134904 0.121398 0.771518 0.359746 0.734092 0.949245 0.394314 0.155366 0.73007 0.691569 0.738893 0.385621 0.837042
Is 0.517471 0.848727 0.362592 0.445648 0.024235 0.806826 0.854382 0.430971 0.314098 0.248255 0.307081 0.797451 0.359524 0.377556 0.545848 0.6651 0.682481 0.0398577 0.412463 0.562058 0.971447 0.337035 0.159449 0.742161 0.654869 0.520085 0.498153 0.0368595 0.947958 0.168493
IsNot 0.550065 0.213397 0.682729 0.961504 0.932746 0.30109 0.568042 0.290109 0.62685 0.753942 0.0899251 0.65099 0.877929 0.0444635 0.744328 0.387313 0.0645064 0.196342 0.284178 0.490644 0.550097 0.313701 0.32081 0.0816417 0.417655 0.311389 0.772913 0.942517 0.0231793 0.437106
In 0.759911 0.202659 0.430984 0.0310578 0.365409 0.378631 0.40307 0.497226 0.930127 0.181691 0.305077 0.446433 0.966244 0.868828 0.324238 0.175868 0.402029 0.48841 0.718554 0.484435 0.224792 0.701213 0.790484 0.0381533 0.506767 0.501737 0.361332 0.0101974 0.138853 0.568063
NotIn 0.542115 0.71094 0.459714 0.201917 0.401152 0.33381 0.734739 0.524883 0.954081 0.283306 0.528827 0.465469 0.136129 0.0478725 0.667463 0.32604 0.27735 0.692446 0.781708 0.90717 0.618634 0.954524 0.487311 0.652183 0.230662 0.718841 0.108772 0.352647 0.0288357 0.0240985
comprehension 0.103006 0.222241 0.824652 0.312293 0.804846 0.199088 0.0758616 0.530063 0.301623 0.0885835 0.473517 0.0802751 0.61722 0.968606 0.842764 0.511886 0.10299 0.754695 0.25641 0.233797 0.0354972 0.95591 0.355617 0.532855 0.00231433 0.887835 0.740398 0.655549 0.829048 0.334785
ExceptHandler 0.680482 0.423508 0.0388609 0.671465 0.722342 0.775917 0.914814 0.836182 0.941377 0.475733 0.924019 0.748661 0.561689 0.868912 0.786035 0.949841 0.682954 0.519173 0.698388 0.711794 0.234594 0.722809 0.671424 0.413839 0.0294966 0.0263315 0.676046 0.230347 0.279978 0.933854
arguments 0.0720798 0.707178 0.674871 0.182928 0.351281 0.0930028 0.870096 0.426782 0.832233 0.477317 0.119394 0.274731 0.299836 0.69165 0.427803 0.750452 0.896483 0.153824 0.0979887 0.391113 0.904432 0.369237 0.2752 0.930256 0.613116 0.944501 0.498603 -2.26777e-05 0.700093 0.475246
keyword 0.883199 0.18252 0.952013 0.486286 0.566533 0.805327 0.239627 0.183177 0.661648 0.188895 0.0692109 0.421364 0.0455229 0.243986 0.73649 0.592175 0.864705 0.14556 0.0108293 0.379661 0.733968 0.263715 0.775045 0.688384 0.24332 0.423256 0.947973 0.305291 0.489843 0.672226
alias 0.466235 0.941445 0.473724 0.0813755 0.86146 0.418514 0.449381 0.448903 0.65181 0.0957795 0.266107 0.392956 0.291792 0.635875 0.244622 0.634471 0.0995109 0.0632511 0.710825 0.59292 0.329212 0.3397 0.649255 0.921252 0.358631 0.505579 0.298209 0.522267 0.238075 0.947393
